{"learner":{"attributes":{"scikit_learn":"{\"_estimator_type\": \"regressor\"}"},"feature_names":[],"feature_types":[],"gradient_booster":{"model":{"gbtree_model_param":{"num_parallel_tree":"1","num_trees":"300"},"iteration_indptr":[0,1,2,3,4,5,6,7,8,9,10,11,12,13,14,15,16,17,18,19,20,21,22,23,24,25,26,27,28,29,30,31,32,33,34,35,36,37,38,39,40,41,42,43,44,45,46,47,48,49,50,51,52,53,54,55,56,57,58,59,60,61,62,63,64,65,66,67,68,69,70,71,72,73,74,75,76,77,78,79,80,81,82,83,84,85,86,87,88,89,90,91,92,93,94,95,96,97,98,99,100,101,102,103,104,105,106,107,108,109,110,111,112,113,114,115,116,117,118,119,120,121,122,123,124,125,126,127,128,129,130,131,132,133,134,135,136,137,138,139,140,141,142,143,144,145,146,147,148,149,150,151,152,153,154,155,156,157,158,159,160,161,162,163,164,165,166,167,168,169,170,171,172,173,174,175,176,177,178,179,180,181,182,183,184,185,186,187,188,189,190,191,192,193,194,195,196,197,198,199,200,201,202,203,204,205,206,207,208,209,210,211,212,213,214,215,216,217,218,219,220,221,222,223,224,225,226,227,228,229,230,231,232,233,234,235,236,237,238,239,240,241,242,243,244,245,246,247,248,249,250,251,252,253,254,255,256,257,258,259,260,261,262,263,264,265,266,267,268,269,270,271,272,273,274,275,276,277,278,279,280,281,282,283,284,285,286,287,288,289,290,291,292,293,294,295,296,297,298,299,300],"tree_info":[0,0,0,0,0,0,0,0,0,0,0,0,0,0,0,0,0,0,0,0,0,0,0,0,0,0,0,0,0,0,0,0,0,0,0,0,0,0,0,0,0,0,0,0,0,0,0,0,0,0,0,0,0,0,0,0,0,0,0,0,0,0,0,0,0,0,0,0,0,0,0,0,0,0,0,0,0,0,0,0,0,0,0,0,0,0,0,0,0,0,0,0,0,0,0,0,0,0,0,0,0,0,0,0,0,0,0,0,0,0,0,0,0,0,0,0,0,0,0,0,0,0,0,0,0,0,0,0,0,0,0,0,0,0,0,0,0,0,0,0,0,0,0,0,0,0,0,0,0,0,0,0,0,0,0,0,0,0,0,0,0,0,0,0,0,0,0,0,0,0,0,0,0,0,0,0,0,0,0,0,0,0,0,0,0,0,0,0,0,0,0,0,0,0,0,0,0,0,0,0,0,0,0,0,0,0,0,0,0,0,0,0,0,0,0,0,0,0,0,0,0,0,0,0,0,0,0,0,0,0,0,0,0,0,0,0,0,0,0,0,0,0,0,0,0,0,0,0,0,0,0,0,0,0,0,0,0,0,0,0,0,0,0,0,0,0,0,0,0,0,0,0,0,0,0,0,0,0,0,0,0,0,0,0,0,0,0,0,0,0,0,0,0,0,0,0,0,0,0,0],"trees":[{"base_weights":[1.2312712E-4,7.5713515E-2,-7.676588E-2,3.7035127E-3,5.8746915E-2,-1.353509E-1,-5.062195E-2,2.4868534E-3,7.841906E-4,-1.5386727E-1,6.349244E-4,6.0768207E-3,-9.5638275E-2,1.8589962E-3,-1.6536228E-1,-3.0367903E-4,2.695131E-3,-7.672153E-2,-1.639426E-1,-5.623254E-3,-2.3869467E-3,-1.6804431E-3,-4.147963E-3,-5.9722727E-3,-7.542733E-4],"categories":[],"categories_nodes":[],"categories_segments":[],"categories_sizes":[],"default_left":[0,0,0,0,0,0,0,0,0,0,0,0,0,0,0,0,0,0,0,0,0,0,0,0,0],"id":0,"left_children":[1,3,5,-1,7,9,11,-1,-1,13,-1,15,17,-1,19,-1,-1,21,23,-1,-1,-1,-1,-1,-1],"loss_changes":[3.882358E0,2.5150645E-1,4.8418474E-1,0E0,1.860457E-1,3.0615687E-1,5.9756804E-1,0E0,0E0,2.3999476E-1,0E0,1.461496E-1,1.3697124E-1,0E0,1.2970519E-1,0E0,0E0,1.0859734E-1,1.04302466E-1,0E0,0E0,0E0,0E0,0E0,0E0],"parents":[2147483647,0,0,1,1,2,2,4,4,5,5,6,6,9,9,11,11,12,12,14,14,17,17,18,18],"right_children":[2,4,6,-1,8,10,12,-1,-1,14,-1,16,18,-1,20,-1,-1,22,24,-1,-1,-1,-1,-1,-1],"split_conditions":[5E-1,-5E-1,-3.8874105E-1,3.7035127E-3,1E0,7.3226213E-1,1E0,2.4868534E-3,7.841906E-4,-9.5251334E-1,6.349244E-4,5.4451376E-1,1.5E0,1.8589962E-3,1E0,-3.0367903E-4,2.695131E-3,1E0,4.59562E-1,-5.623254E-3,-2.3869467E-3,-1.6804431E-3,-4.147963E-3,-5.9722727E-3,-7.542733E-4],"split_indices":[4,4,1,0,22,0,22,0,0,1,0,0,4,0,6,0,0,8,1,0,0,0,0,0,0],"split_type":[0,0,0,0,0,0,0,0,0,0,0,0,0,0,0,0,0,0,0,0,0,0,0,0,0],"sum_hessian":[6.67E2,3.37E2,3.3E2,8.6E1,2.51E2,1E2,2.3E2,1.42E2,1.09E2,9E1,1E1,1.01E2,1.29E2,4E0,8.6E1,8.4E1,1.7E1,1.03E2,2.6E1,6.7E1,1.9E1,7.9E1,2.4E1,2E1,6E0],"tree_param":{"num_deleted":"0","num_feature":"30","num_nodes":"25","size_leaf_vector":"1"}},{"base_weights":[-0E0,7.304265E-2,-7.167607E-2,3.6467717E-3,5.6054253E-2,-8.9874394E-2,-0E0,2.5038978E-3,6.806243E-4,-1.1332567E-1,-2.1789068E-2,-4.1430965E-3,6.3420075E-4,-1.3779418E-1,-1.3672769E-3,-3.7206772E-3,-2.2130942E-3,-4.2775073E-3,1.4084373E-3,-4.6843044E-3,5.2552373E-4],"categories":[],"categories_nodes":[],"categories_segments":[],"categories_sizes":[],"default_left":[0,0,0,0,0,0,0,0,0,0,0,0,0,0,0,0,0,0,0,0,0],"id":1,"left_children":[1,3,5,-1,7,9,11,-1,-1,13,15,-1,-1,17,-1,-1,19,-1,-1,-1,-1],"loss_changes":[3.4815755E0,2.5041115E-1,4.4516635E-1,0E0,2.138747E-1,4.139645E-1,1.8870682E-1,0E0,0E0,3.0758357E-1,1.2833229E-1,0E0,0E0,1.4076447E-1,0E0,0E0,1.989767E-1,0E0,0E0,0E0,0E0],"parents":[2147483647,0,0,1,1,2,2,4,4,5,5,6,6,9,9,10,10,13,13,16,16],"right_children":[2,4,6,-1,8,10,12,-1,-1,14,16,-1,-1,18,-1,-1,20,-1,-1,-1,-1],"split_conditions":[5E-1,-5E-1,1E0,3.6467717E-3,1E0,1E0,-7.1243405E-1,2.5038978E-3,6.806243E-4,4.5399243E-1,-6E-1,-4.1430965E-3,6.3420075E-4,1E0,-1.3672769E-3,-3.7206772E-3,-8.9848554E-1,-4.2775073E-3,1.4084373E-3,-4.6843044E-3,5.2552373E-4],"split_indices":[4,4,7,0,22,6,3,0,0,3,2,0,0,17,0,0,3,0,0,0,0],"split_type":[0,0,0,0,0,0,0,0,0,0,0,0,0,0,0,0,0,0,0,0,0],"sum_hessian":[6.64E2,3.29E2,3.35E2,8.3E1,2.46E2,2.68E2,6.7E1,1.33E2,1.13E2,1.98E2,7E1,8E0,5.9E1,1.44E2,5.4E1,1E1,6E1,1.41E2,3E0,7E0,5.3E1],"tree_param":{"num_deleted":"0","num_feature":"30","num_nodes":"21","size_leaf_vector":"1"}},{"base_weights":[-7.9175865E-4,6.8874985E-2,-6.9523424E-2,3.4103475E-3,5.1741518E-2,-4.950384E-2,-1.3367888E-1,-1.9325732E-3,1.6716562E-3,-6.622917E-2,9.833247E-4,-1.6072953E-1,-1.2358989E-3,-1.2904172E-1,-4.409333E-2,-1.7788084E-1,-4.3004425E-4,-4.553502E-3,-1.2275929E-5,-1.7779027E-3,5.925326E-4,-5.699223E-3,-0E0],"categories":[],"categories_nodes":[],"categories_segments":[],"categories_sizes":[],"default_left":[0,0,0,0,0,0,0,0,0,0,0,0,0,0,0,0,0,0,0,0,0,0,0],"id":2,"left_children":[1,3,5,-1,7,9,11,-1,-1,13,-1,15,-1,17,19,21,-1,-1,-1,-1,-1,-1,-1],"loss_changes":[3.232175E0,2.372911E-1,4.1569936E-1,0E0,1.1397213E-1,3.643024E-1,1.7538202E-1,0E0,0E0,2.8364593E-1,0E0,1.3141072E-1,0E0,1.4710492E-1,1.628905E-1,1.297276E-1,0E0,0E0,0E0,0E0,0E0,0E0,0E0],"parents":[2147483647,0,0,1,1,2,2,4,4,5,5,6,6,9,9,11,11,13,13,14,14,15,15],"right_children":[2,4,6,-1,8,10,12,-1,-1,14,-1,16,-1,18,20,22,-1,-1,-1,-1,-1,-1,-1],"split_conditions":[5E-1,-5E-1,1.5E0,3.4103475E-3,-8.978262E-1,5.5452126E-1,1E0,-1.9325732E-3,1.6716562E-3,-4.3655005E-1,9.833247E-4,8.892594E-1,-1.2358989E-3,1E0,1E0,1E0,-4.3004425E-4,-4.553502E-3,-1.2275929E-5,-1.7779027E-3,5.925326E-4,-5.699223E-3,-0E0],"split_indices":[4,4,4,0,0,0,6,0,0,1,0,3,0,7,6,17,0,0,0,0,0,0,0],"split_type":[0,0,0,0,0,0,0,0,0,0,0,0,0,0,0,0,0,0,0,0,0,0,0],"sum_hessian":[6.74E2,3.34E2,3.4E2,9E1,2.44E2,2.61E2,7.9E1,7E0,2.37E2,2.18E2,4.3E1,6E1,1.9E1,5.5E1,1.63E2,5.3E1,7E0,4.6E1,9E0,1.33E2,3E1,5E1,3E0],"tree_param":{"num_deleted":"0","num_feature":"30","num_nodes":"23","size_leaf_vector":"1"}},{"base_weights":[-9.652224E-4,6.7317374E-2,-6.914059E-2,2.739934E-3,3.6644533E-2,-9.2483304E-2,-5.592844E-3,3.0455433E-3,3.9693544E-4,-7.076673E-2,-1.6028494E-1,1.1229147E-3,-5.066257E-2,-5.567184E-4,-1.08521454E-1,-6.6425577E-3,-3.0904089E-3,-5.710884E-4,-4.204299E-3,-3.8112295E-3,-7.27608E-4],"categories":[],"categories_nodes":[],"categories_segments":[],"categories_sizes":[],"default_left":[0,0,0,0,0,0,0,0,0,0,0,0,0,0,0,0,0,0,0,0,0],"id":3,"left_children":[1,3,5,-1,7,9,11,-1,-1,13,15,-1,17,-1,19,-1,-1,-1,-1,-1,-1],"loss_changes":[3.2076087E0,2.3854089E-1,5.0244033E-1,0E0,2.2100584E-1,3.4153676E-1,1.8551159E-1,0E0,0E0,3.657322E-1,1.6447365E-1,0E0,1.1717045E-1,0E0,1.557765E-1,0E0,0E0,0E0,0E0,0E0,0E0],"parents":[2147483647,0,0,1,1,2,2,4,4,5,5,6,6,9,9,10,10,12,12,14,14],"right_children":[2,4,6,-1,8,10,12,-1,-1,14,16,-1,18,-1,20,-1,-1,-1,-1,-1,-1],"split_conditions":[5E-1,1E0,4.3327338E-1,2.739934E-3,-5E-1,1.5E0,1E0,3.0455433E-3,3.9693544E-4,1E0,-3.1133196E-1,1.1229147E-3,1.5E0,-5.567184E-4,1E0,-6.6425577E-3,-3.0904089E-3,-5.710884E-4,-4.204299E-3,-3.8112295E-3,-7.27608E-4],"split_indices":[4,22,3,0,4,4,22,0,0,22,1,0,4,0,7,0,0,0,0,0,0],"split_type":[0,0,0,0,0,0,0,0,0,0,0,0,0,0,0,0,0,0,0,0,0],"sum_hessian":[6.88E2,3.43E2,3.45E2,1.9E2,1.53E2,2.51E2,9.4E1,3.9E1,1.14E2,1.92E2,5.9E1,4.7E1,4.7E1,8.2E1,1.1E2,2.7E1,3.2E1,3.6E1,1.1E1,8.9E1,2.1E1],"tree_param":{"num_deleted":"0","num_feature":"30","num_nodes":"21","size_leaf_vector":"1"}},{"base_weights":[-2.3192745E-3,2.9352734E-2,-3.5712186E-2,-3.7301384E-2,3.5774082E-2,-5.1633384E-2,4.0213024E-4,-1.961891E-4,-5.5575343E-3,2.3776919E-2,2.0502675E-3,-6.56831E-2,2.8398712E-4,3.01857E-2,-4.8175077E-3,-5.8763098E-2,-6.3741365E-3,1.3470735E-3,-5.386097E-4,-3.6243072E-3,-1.391878E-3],"categories":[],"categories_nodes":[],"categories_segments":[],"categories_sizes":[],"default_left":[0,0,0,0,0,0,0,0,0,0,0,0,0,0,0,0,0,0,0,0,0],"id":4,"left_children":[1,3,5,7,9,11,-1,-1,-1,13,-1,15,-1,17,-1,19,-1,-1,-1,-1,-1],"loss_changes":[7.219285E-1,1.496757E-1,2.6496398E-1,1.1447538E-1,1.1481249E-1,2.2354513E-1,0E0,0E0,0E0,2.688148E-1,0E0,1.7740709E-1,0E0,1.6568838E-1,0E0,1.3356256E-1,0E0,0E0,0E0,0E0,0E0],"parents":[2147483647,0,0,1,1,2,2,3,3,4,4,5,5,9,9,11,11,13,13,15,15],"right_children":[2,4,6,8,10,12,-1,-1,-1,14,-1,16,-1,18,-1,20,-1,-1,-1,-1,-1],"split_conditions":[1E0,-8E-1,5.106254E-1,1E0,4.1086143E-1,1E0,4.0213024E-4,-1.961891E-4,-5.5575343E-3,3.762065E-1,2.0502675E-3,4.7163904E-1,2.8398712E-4,1E0,-4.8175077E-3,-8.028407E-1,-6.3741365E-3,1.3470735E-3,-5.386097E-4,-3.6243072E-3,-1.391878E-3],"split_indices":[22,2,0,25,3,7,0,0,0,3,0,0,0,8,0,3,0,0,0,0,0],"split_type":[0,0,0,0,0,0,0,0,0,0,0,0,0,0,0,0,0,0,0,0,0],"sum_hessian":[6.81E2,3.48E2,3.33E2,2.9E1,3.19E2,2.53E2,8E1,2.5E1,4E0,2.36E2,8.3E1,2.07E2,4.6E1,2.29E2,7E0,1.99E2,8E0,1.77E2,5.2E1,3.1E1,1.68E2],"tree_param":{"num_deleted":"0","num_feature":"30","num_nodes":"21","size_leaf_vector":"1"}},{"base_weights":[3.6588835E-3,6.649596E-2,-6.054276E-2,3.156318E-3,1.5468675E-3,-3.8673062E-2,-1.3139047E-1,-4.561214E-3,-2.5521178E-2,-5.4502334E-3,-8.538908E-2,-4.2612307E-2,1.2290442E-2,4.474121E-4,-1.1466972E-1,-5.331836E-4,-2.3386215E-3,1.1742569E-3,-2.687056E-3,-5.4889475E-3,-1.56946E-3],"categories":[],"categories_nodes":[],"categories_segments":[],"categories_sizes":[],"default_left":[0,0,0,0,0,0,0,0,0,0,0,0,0,0,0,0,0,0,0,0,0],"id":5,"left_children":[1,3,5,-1,-1,7,9,-1,11,-1,13,15,17,-1,19,-1,-1,-1,-1,-1,-1],"loss_changes":[2.8003561E0,1.8483114E-1,5.1112866E-1,0E0,0E0,3.7318093E-1,1.4943135E-1,0E0,1.5677682E-1,0E0,1.385872E-1,1.3502243E-1,1.9500226E-1,0E0,1.1860448E-1,0E0,0E0,0E0,0E0,0E0,0E0],"parents":[2147483647,0,0,1,1,2,2,5,5,6,6,8,8,10,10,11,11,12,12,14,14],"right_children":[2,4,6,-1,-1,8,10,-1,12,-1,14,16,18,-1,20,-1,-1,-1,-1,-1,-1],"split_conditions":[5E-1,-5E-1,1.5E0,3.156318E-3,1.5468675E-3,-8.9848554E-1,-2.3745921E-1,-4.561214E-3,4.5399243E-1,-5.4502334E-3,6.1938245E-2,-8.01383E-2,9.2185295E-1,4.474121E-4,4.3637565E-1,-5.331836E-4,-2.3386215E-3,1.1742569E-3,-2.687056E-3,-5.4889475E-3,-1.56946E-3],"split_indices":[4,4,4,0,0,3,1,0,3,0,1,0,3,0,1,0,0,0,0,0,0],"split_type":[0,0,0,0,0,0,0,0,0,0,0,0,0,0,0,0,0,0,0,0,0],"sum_hessian":[6.93E2,3.51E2,3.42E2,9.5E1,2.56E2,2.63E2,7.9E1,2.6E1,2.37E2,3.6E1,4.3E1,1.65E2,7.2E1,9E0,3.4E1,9.9E1,6.6E1,5.8E1,1.4E1,1.5E1,1.9E1],"tree_param":{"num_deleted":"0","num_feature":"30","num_nodes":"21","size_leaf_vector":"1"}},{"base_weights":[1.5317501E-3,6.33806E-2,-6.0388733E-2,3.153014E-3,4.928804E-2,-4.0163804E-2,-1.2144202E-1,2.111682E-3,6.667897E-4,-1.3437155E-1,-2.367228E-2,-5.334396E-3,-7.890613E-2,-9.937211E-4,-1.7744638E-1,-4.096911E-2,2.316307E-2,-7.48755E-4,-4.159326E-3,-6.889882E-3,-0E0,-9.207126E-4,-5.3927726E-3,1.5296679E-3,-1.4767331E-3],"categories":[],"categories_nodes":[],"categories_segments":[],"categories_sizes":[],"default_left":[0,0,0,0,0,0,0,0,0,0,0,0,0,0,0,0,0,0,0,0,0,0,0,0,0],"id":6,"left_children":[1,3,5,-1,7,9,11,-1,-1,13,15,-1,17,-1,19,21,23,-1,-1,-1,-1,-1,-1,-1,-1],"loss_changes":[2.6236496E0,1.8392837E-1,4.0308428E-1,0E0,1.381408E-1,3.842184E-1,1.6752887E-1,0E0,0E0,1.3954979E-1,1.8169296E-1,0E0,1.4143455E-1,0E0,2.2560298E-1,2.0944235E-1,1.1926472E-1,0E0,0E0,0E0,0E0,0E0,0E0,0E0,0E0],"parents":[2147483647,0,0,1,1,2,2,4,4,5,5,6,6,9,9,10,10,12,12,14,14,15,15,16,16],"right_children":[2,4,6,-1,8,10,12,-1,-1,14,16,-1,18,-1,20,22,24,-1,-1,-1,-1,-1,-1,-1,-1],"split_conditions":[5E-1,-5E-1,1.5E0,3.153014E-3,1E0,-8.028407E-1,-3.1133196E-1,2.111682E-3,6.667897E-4,-8.213726E-1,5.2772653E-1,-5.334396E-3,1E0,-9.937211E-4,1E0,4.476941E-1,9.2185295E-1,-7.48755E-4,-4.159326E-3,-6.889882E-3,-0E0,-9.207126E-4,-5.3927726E-3,1.5296679E-3,-1.4767331E-3],"split_indices":[4,4,4,0,22,3,1,0,0,0,0,0,22,0,9,0,3,0,0,0,0,0,0,0,0],"split_type":[0,0,0,0,0,0,0,0,0,0,0,0,0,0,0,0,0,0,0,0,0,0,0,0,0],"sum_hessian":[6.84E2,3.43E2,3.41E2,8.4E1,2.59E2,2.58E2,8.3E1,1.43E2,1.16E2,3.7E1,2.21E2,3.4E1,4.9E1,1.2E1,2.5E1,1.63E2,5.8E1,2.7E1,2.2E1,1.9E1,6E0,1.53E2,1E1,4.3E1,1.5E1],"tree_param":{"num_deleted":"0","num_feature":"30","num_nodes":"25","size_leaf_vector":"1"}},{"base_weights":[1.9897311E-4,5.7306286E-2,-5.763403E-2,3.0552763E-3,4.3049768E-2,-1.14483446E-1,-3.4427613E-2,1.9358579E-3,4.97992E-4,-1.5170534E-1,6.154884E-4,3.8487036E-3,-2.154523E-3,-1.728986E-1,-5.264172E-4,-3.2447206E-3,3.643057E-3,3.7265455E-4,-5.509969E-3,4.1579866E-4,-1.8449522E-3],"categories":[],"categories_nodes":[],"categories_segments":[],"categories_sizes":[],"default_left":[0,0,0,0,0,0,0,0,0,0,0,0,0,0,0,0,0,0,0,0,0],"id":7,"left_children":[1,3,5,-1,7,9,11,-1,-1,13,-1,15,-1,17,-1,19,-1,-1,-1,-1,-1],"loss_changes":[2.2292812E0,1.9951296E-1,4.244343E-1,0E0,1.3934574E-1,4.945575E-1,3.4969422E-1,0E0,0E0,1.941036E-1,0E0,1.10021785E-1,0E0,1.4696503E-1,0E0,1.1529338E-1,0E0,0E0,0E0,0E0,0E0],"parents":[2147483647,0,0,1,1,2,2,4,4,5,5,6,6,9,9,11,11,13,13,15,15],"right_children":[2,4,6,-1,8,10,12,-1,-1,14,-1,16,-1,18,-1,20,-1,-1,-1,-1,-1],"split_conditions":[5E-1,-5E-1,-4.1150123E-1,3.0552763E-3,1E0,5.5452126E-1,1E0,1.9358579E-3,4.97992E-4,1E0,6.154884E-4,1E0,-2.154523E-3,-9.5251334E-1,-5.264172E-4,1.5E0,3.643057E-3,3.7265455E-4,-5.509969E-3,4.1579866E-4,-1.8449522E-3],"split_indices":[4,4,1,0,22,0,22,0,0,7,0,18,0,1,0,4,0,0,0,0,0],"split_type":[0,0,0,0,0,0,0,0,0,0,0,0,0,0,0,0,0,0,0,0,0],"sum_hessian":[6.74E2,3.4E2,3.34E2,8E1,2.6E2,9.5E1,2.39E2,1.41E2,1.19E2,7.5E1,2E1,1.17E2,1.22E2,6.4E1,1.1E1,1.1E2,7E0,3E0,6.1E1,8.4E1,2.6E1],"tree_param":{"num_deleted":"0","num_feature":"30","num_nodes":"21","size_leaf_vector":"1"}},{"base_weights":[3.6376647E-3,6.397613E-2,-5.7836775E-2,6.709269E-2,-2.040947E-3,-7.5582355E-2,4.211875E-3,3.0283425E-3,5.4464716E-2,-1.0371467E-1,2.2368193E-4,2.9890658E-2,-1.7784237E-3,-2.4517067E-3,5.838288E-2,-6.115248E-3,-8.878649E-2,-9.394019E-3,2.4680307E-3,2.493872E-3,1.0812468E-3,-2.0506748E-3,-4.416863E-3,1.2766215E-3,-2.2523988E-3],"categories":[],"categories_nodes":[],"categories_segments":[],"categories_sizes":[],"default_left":[0,0,0,0,0,0,0,0,0,0,0,0,0,0,0,0,0,0,0,0,0,0,0,0,0],"id":8,"left_children":[1,3,5,7,-1,9,11,-1,13,15,-1,17,-1,-1,19,-1,21,23,-1,-1,-1,-1,-1,-1,-1],"loss_changes":[2.5414617E0,1.4474154E-1,3.8001502E-1,1.2684047E-1,0E0,6.2790096E-1,1.1941282E-1,0E0,1.337204E-1,2.5838852E-1,0E0,1.19813785E-1,0E0,0E0,1.2175977E-1,0E0,1.8176508E-1,1.08923934E-1,0E0,0E0,0E0,0E0,0E0,0E0,0E0],"parents":[2147483647,0,0,1,1,2,2,3,3,5,5,6,6,8,8,9,9,11,11,14,14,16,16,17,17],"right_children":[2,4,6,8,-1,10,12,-1,14,16,-1,18,-1,-1,20,-1,22,24,-1,-1,-1,-1,-1,-1,-1],"split_conditions":[5E-1,9.1229004E-1,1E0,-5E-1,-2.040947E-3,1E0,1E0,3.0283425E-3,-8.978262E-1,-7.5323E-1,2.2368193E-4,5.8540843E-2,-1.7784237E-3,-2.4517067E-3,-3.887557E-2,-6.115248E-3,1.5E0,-5.1946855E-1,2.4680307E-3,2.493872E-3,1.0812468E-3,-2.0506748E-3,-4.416863E-3,1.2766215E-3,-2.2523988E-3],"split_indices":[4,1,6,4,0,7,25,0,0,1,0,3,0,0,0,0,4,0,0,0,0,0,0,0,0],"split_type":[0,0,0,0,0,0,0,0,0,0,0,0,0,0,0,0,0,0,0,0,0,0,0,0,0],"sum_hessian":[6.84E2,3.46E2,3.38E2,3.39E2,7E0,2.64E2,7.4E1,8.9E1,2.5E2,1.98E2,6.6E1,5.4E1,2E1,6E0,2.44E2,2.4E1,1.74E2,3E1,2.4E1,1.13E2,1.31E2,1.31E2,4.3E1,1.6E1,1.4E1],"tree_param":{"num_deleted":"0","num_feature":"30","num_nodes":"25","size_leaf_vector":"1"}},{"base_weights":[-9.514845E-4,5.90537E-2,-5.899262E-2,2.4845318E-3,3.160051E-2,-7.9160035E-2,-6.7987377E-3,2.7727957E-3,3.3104414E-4,-1.20548144E-1,-5.0680447E-2,9.5803355E-4,-4.591082E-2,1.2000912E-3,-1.3031277E-1,-4.1717195E-4,-8.346531E-2,-5.705614E-4,-4.1378248E-3,-4.5307763E-3,-6.5277494E-4,1.8318666E-3,-2.7932005E-3],"categories":[],"categories_nodes":[],"categories_segments":[],"categories_sizes":[],"default_left":[0,0,0,0,0,0,0,0,0,0,0,0,0,0,0,0,0,0,0,0,0,0,0],"id":9,"left_children":[1,3,5,-1,7,9,11,-1,-1,13,15,-1,17,-1,19,-1,21,-1,-1,-1,-1,-1,-1],"loss_changes":[2.3682775E0,2.0482445E-1,3.558663E-1,0E0,1.8616538E-1,2.7273345E-1,1.5135187E-1,0E0,0E0,1.676259E-1,1.6992787E-1,0E0,1.0795714E-1,0E0,1.9355989E-1,0E0,1.14039004E-1,0E0,0E0,0E0,0E0,0E0,0E0],"parents":[2147483647,0,0,1,1,2,2,4,4,5,5,6,6,9,9,10,10,12,12,14,14,16,16],"right_children":[2,4,6,-1,8,10,12,-1,-1,14,16,-1,18,-1,20,-1,22,-1,-1,-1,-1,-1,-1],"split_conditions":[5E-1,1E0,4.3327338E-1,2.4845318E-3,-5E-1,-3.3691192E-1,1E0,2.7727957E-3,3.3104414E-4,-9.5251334E-1,1E0,9.5803355E-4,1.5E0,1.2000912E-3,5.106254E-1,-4.1717195E-4,-2.765256E-1,-5.705614E-4,-4.1378248E-3,-4.5307763E-3,-6.5277494E-4,1.8318666E-3,-2.7932005E-3],"split_indices":[4,22,3,0,4,1,22,0,0,1,22,0,4,0,0,0,1,0,0,0,0,0,0],"split_type":[0,0,0,0,0,0,0,0,0,0,0,0,0,0,0,0,0,0,0,0,0,0,0],"sum_hessian":[6.79E2,3.33E2,3.46E2,1.76E2,1.57E2,2.48E2,9.8E1,3.8E1,1.19E2,9.9E1,1.49E2,4.8E1,5E1,5E0,9.4E1,7.2E1,7.7E1,4E1,1E1,7.8E1,1.6E1,4E0,7.3E1],"tree_param":{"num_deleted":"0","num_feature":"30","num_nodes":"23","size_leaf_vector":"1"}},{"base_weights":[2.5996342E-3,5.451729E-2,-4.8441425E-2,2.7894974E-3,4.0802743E-2,-2.6430108E-2,-1.1613118E-1,1.8511504E-3,4.4352812E-4,-1.3190377E-1,-1.3296573E-2,-1.4893828E-1,-1.0014786E-3,-1.6782382E-1,4.6146716E-4,6.160406E-4,-4.093846E-2,-1.6184452E-1,1.3695254E-4,-9.17074E-4,-6.571984E-3,-2.553438E-4,-2.175491E-3,-5.215097E-3,3.7756428E-4],"categories":[],"categories_nodes":[],"categories_segments":[],"categories_sizes":[],"default_left":[0,0,0,0,0,0,0,0,0,0,0,0,0,0,0,0,0,0,0,0,0,0,0,0,0],"id":10,"left_children":[1,3,5,-1,7,9,11,-1,-1,13,15,17,-1,19,-1,-1,21,23,-1,-1,-1,-1,-1,-1,-1],"loss_changes":[1.8423059E0,1.6699064E-1,5.049435E-1,0E0,1.3193509E-1,3.5238475E-1,2.0867753E-1,0E0,0E0,1.6731474E-1,2.2456117E-1,1.3397586E-1,0E0,1.3696945E-1,0E0,0E0,1.2726551E-1,1.3331234E-1,0E0,0E0,0E0,0E0,0E0,0E0,0E0],"parents":[2147483647,0,0,1,1,2,2,4,4,5,5,6,6,9,9,10,10,11,11,13,13,16,16,17,17],"right_children":[2,4,6,-1,8,10,12,-1,-1,14,16,18,-1,20,-1,-1,22,24,-1,-1,-1,-1,-1,-1,-1],"split_conditions":[5E-1,-5E-1,1.5E0,2.7894974E-3,1E0,-8.89046E-1,3.4115222E-1,1.8511504E-3,4.4352812E-4,1E0,1E0,1E0,-1.0014786E-3,-8.213726E-1,4.6146716E-4,6.160406E-4,2E-1,1E0,1.3695254E-4,-9.17074E-4,-6.571984E-3,-2.553438E-4,-2.175491E-3,-5.215097E-3,3.7756428E-4],"split_indices":[4,4,4,0,22,3,1,0,0,9,22,20,0,0,0,0,2,15,0,0,0,0,0,0,0],"split_type":[0,0,0,0,0,0,0,0,0,0,0,0,0,0,0,0,0,0,0,0,0,0,0,0,0],"sum_hessian":[6.94E2,3.45E2,3.49E2,8.8E1,2.57E2,2.65E2,8.4E1,1.4E2,1.17E2,2.8E1,2.37E2,5.9E1,2.5E1,2.3E1,5E0,1.05E2,1.32E2,5.5E1,4E0,7E0,1.6E1,6.7E1,6.5E1,5.2E1,3E0],"tree_param":{"num_deleted":"0","num_feature":"30","num_nodes":"25","size_leaf_vector":"1"}},{"base_weights":[1.4458689E-3,5.4316428E-2,-5.3711522E-2,2.7275388E-3,4.069426E-2,-2.2556081E-2,-8.1564724E-2,1.9781447E-3,3.3078948E-4,-7.295849E-2,2.6401237E-3,-9.647892E-2,-6.1621315E-5,-1.1065293E-1,-0E0,-4.653342E-3,1.2450412E-2,-3.6561422E-3,-5.9402548E-2,1.235983E-3,-3.8683086E-3,1.5869138E-3,-8.8284415E-4,-3.2553258E-3,-6.1422E-4],"categories":[],"categories_nodes":[],"categories_segments":[],"categories_sizes":[],"default_left":[0,0,0,0,0,0,0,0,0,0,0,0,0,0,0,0,0,0,0,0,0,0,0,0,0],"id":11,"left_children":[1,3,5,-1,7,9,11,-1,-1,13,15,17,-1,19,-1,-1,21,-1,23,-1,-1,-1,-1,-1,-1],"loss_changes":[1.9510003E0,1.557566E-1,2.7199787E-1,0E0,1.8104604E-1,2.0587523E-1,1.9223285E-1,0E0,0E0,1.376431E-1,1.4687486E-1,1.1241114E-1,0E0,1.0725382E-1,0E0,0E0,1.6996944E-1,0E0,1.0164946E-1,0E0,0E0,0E0,0E0,0E0,0E0],"parents":[2147483647,0,0,1,1,2,2,4,4,5,5,6,6,9,9,10,10,11,11,13,13,16,16,18,18],"right_children":[2,4,6,-1,8,10,12,-1,-1,14,16,18,-1,20,-1,-1,22,-1,24,-1,-1,-1,-1,-1,-1],"split_conditions":[5E-1,-5E-1,1E0,2.7275388E-3,1E0,-3.2605582E-1,1E0,1.9781447E-3,3.3078948E-4,1.6387959E-1,-8.028407E-1,1.81037E-1,-6.1621315E-5,-8.213726E-1,-0E0,-4.653342E-3,4.9769637E-1,-3.6561422E-3,-2.707775E-1,1.235983E-3,-3.8683086E-3,1.5869138E-3,-8.8284415E-4,-3.2553258E-3,-6.1422E-4],"split_indices":[4,4,22,0,22,1,7,0,0,3,3,1,0,0,0,0,1,0,0,0,0,0,0,0,0],"split_type":[0,0,0,0,0,0,0,0,0,0,0,0,0,0,0,0,0,0,0,0,0,0,0,0,0],"sum_hessian":[6.68E2,3.42E2,3.26E2,9E1,2.52E2,1.56E2,1.7E2,1.34E2,1.18E2,5.3E1,1.03E2,1.42E2,2.8E1,3.4E1,1.9E1,5E0,9.8E1,8.2E1,6E1,3E0,3.1E1,5.1E1,4.7E1,2.5E1,3.5E1],"tree_param":{"num_deleted":"0","num_feature":"30","num_nodes":"25","size_leaf_vector":"1"}},{"base_weights":[2.4758527E-4,5.2862484E-2,-5.3008657E-2,7.23397E-2,2.8564032E-2,-1.7047694E-2,-8.656851E-2,1.0081038E-3,2.650918E-3,2.4454927E-3,7.7291536E-3,-1.4407638E-1,-5.0119776E-3,-6.627901E-2,-5.0034146E-3,-5.5206896E-5,2.7937014E-3,-6.7848843E-3,2.8258145E-3,-8.955373E-4,1.5295667E-3,-8.500405E-2,7.892124E-3,-3.688824E-3,-6.3253747E-4,1.3552272E-3,-3.0194432E-3],"categories":[],"categories_nodes":[],"categories_segments":[],"categories_sizes":[],"default_left":[0,0,0,0,0,0,0,0,0,0,0,0,0,0,0,0,0,0,0,0,0,0,0,0,0,0,0],"id":12,"left_children":[1,3,5,7,9,11,13,-1,-1,-1,15,17,19,21,-1,-1,-1,-1,-1,-1,-1,23,25,-1,-1,-1,-1],"loss_changes":[1.9025922E0,1.5097004E-1,3.9500362E-1,1.0270333E-1,1.6231686E-1,2.3623109E-1,2.51904E-1,0E0,0E0,0E0,1.0196281E-1,2.8789154E-1,2.0937462E-1,2.0179218E-1,0E0,0E0,0E0,0E0,0E0,0E0,0E0,2.5724393E-1,1.0800774E-1,0E0,0E0,0E0,0E0],"parents":[2147483647,0,0,1,1,2,2,3,3,4,4,5,5,6,6,10,10,11,11,12,12,13,13,21,21,22,22],"right_children":[2,4,6,8,10,12,14,-1,-1,-1,16,18,20,22,-1,-1,-1,-1,-1,-1,-1,24,26,-1,-1,-1,-1],"split_conditions":[5E-1,1E0,1E0,-5.6582856E-1,-5E-1,-8E-1,1.5E0,1.0081038E-3,2.650918E-3,2.4454927E-3,8.119845E-1,1E0,3.9870894E-1,5.106254E-1,-5.0034146E-3,-5.5206896E-5,2.7937014E-3,-6.7848843E-3,2.8258145E-3,-8.955373E-4,1.5295667E-3,2.1395403E-1,6.634882E-1,-3.688824E-3,-6.3253747E-4,1.3552272E-3,-3.0194432E-3],"split_indices":[4,22,22,1,4,2,4,0,0,0,0,24,3,0,0,0,0,0,0,0,0,1,1,0,0,0,0],"split_type":[0,0,0,0,0,0,0,0,0,0,0,0,0,0,0,0,0,0,0,0,0,0,0,0,0,0,0],"sum_hessian":[6.78E2,3.42E2,3.36E2,1.87E2,1.55E2,1.64E2,1.72E2,5.7E1,1.3E2,4.2E1,1.13E2,1.3E1,1.51E2,1.39E2,3.3E1,1.01E2,1.2E1,1E1,3E0,1.06E2,4.5E1,1.12E2,2.7E1,6.9E1,4.3E1,2.1E1,6E0],"tree_param":{"num_deleted":"0","num_feature":"30","num_nodes":"27","size_leaf_vector":"1"}},{"base_weights":[-1.0405098E-3,5.073907E-2,-4.842667E-2,2.1047904E-3,2.5572728E-2,-3.1011181E-2,-1.05345964E-1,2.3467161E-3,1.16411524E-4,-4.7115617E-2,1.0597435E-3,-1.354364E-1,-8.548208E-4,-1.10582374E-1,-2.3651624E-2,-4.436089E-3,1.5622312E-4,1.313328E-3,-3.724441E-3,-1.1217642E-3,1.0802058E-3],"categories":[],"categories_nodes":[],"categories_segments":[],"categories_sizes":[],"default_left":[0,0,0,0,0,0,0,0,0,0,0,0,0,0,0,0,0,0,0,0,0],"id":13,"left_children":[1,3,5,-1,7,9,11,-1,-1,13,-1,15,-1,17,19,-1,-1,-1,-1,-1,-1],"loss_changes":[1.6608816E0,1.4715016E-1,3.3613873E-1,0E0,1.5553302E-1,2.941922E-1,1.7014676E-1,0E0,0E0,3.15123E-1,0E0,1.1519921E-1,0E0,1.3325322E-1,1.3483894E-1,0E0,0E0,0E0,0E0,0E0,0E0],"parents":[2147483647,0,0,1,1,2,2,4,4,5,5,6,6,9,9,11,11,13,13,14,14],"right_children":[2,4,6,-1,8,10,12,-1,-1,14,-1,16,-1,18,20,-1,-1,-1,-1,-1,-1],"split_conditions":[5E-1,1E0,1.5E0,2.1047904E-3,-5E-1,5.5452126E-1,3.4115222E-1,2.3467161E-3,1.16411524E-4,-4.261691E-1,1.0597435E-3,1E0,-8.548208E-4,-9.5251334E-1,1E0,-4.436089E-3,1.5622312E-4,1.313328E-3,-3.724441E-3,-1.1217642E-3,1.0802058E-3],"split_indices":[4,22,4,0,4,0,1,0,0,1,0,20,0,1,6,0,0,0,0,0,0],"split_type":[0,0,0,0,0,0,0,0,0,0,0,0,0,0,0,0,0,0,0,0,0],"sum_hessian":[6.76E2,3.22E2,3.54E2,1.79E2,1.43E2,2.73E2,8.1E1,4E1,1.03E2,2.21E2,5.2E1,5.7E1,2.4E1,5.8E1,1.63E2,5.3E1,4E0,4E0,5.4E1,1.34E2,2.9E1],"tree_param":{"num_deleted":"0","num_feature":"30","num_nodes":"21","size_leaf_vector":"1"}},{"base_weights":[-3.722254E-3,4.8061293E-2,-5.7369567E-2,5.067595E-2,-2.9286076E-3,-3.7361857E-2,-1.2224901E-1,2.482396E-3,1.1663734E-3,-5.420419E-2,4.265732E-2,-4.7346386E-3,-5.23598E-2,-1.03664584E-1,-3.497393E-2,2.3878128E-3,-1.3238642E-3,3.9929274E-4,-3.557744E-3,2.6280782E-3,-3.5049485E-3,-6.5262336E-4,-2.759807E-3],"categories":[],"categories_nodes":[],"categories_segments":[],"categories_sizes":[],"default_left":[0,0,0,0,0,0,0,0,0,0,0,0,0,0,0,0,0,0,0,0,0,0,0],"id":14,"left_children":[1,3,5,7,-1,9,11,-1,-1,13,15,-1,17,19,21,-1,-1,-1,-1,-1,-1,-1,-1],"loss_changes":[1.8649908E0,1.27478E-1,4.1077363E-1,1.1315912E-1,0E0,3.4530285E-1,1.6503835E-1,0E0,0E0,1.854887E-1,1.44745E-1,0E0,1.3092598E-1,1.5284938E-1,1.0408506E-1,0E0,0E0,0E0,0E0,0E0,0E0,0E0,0E0],"parents":[2147483647,0,0,1,1,2,2,3,3,5,5,6,6,9,9,10,10,12,12,13,13,14,14],"right_children":[2,4,6,8,-1,10,12,-1,-1,14,16,-1,18,20,22,-1,-1,-1,-1,-1,-1,-1,-1],"split_conditions":[5E-1,9.1229004E-1,1.5E0,-5E-1,-2.9286076E-3,5.649413E-1,3.1279433E-1,2.482396E-3,1.1663734E-3,-4.261691E-1,9.2185295E-1,-4.7346386E-3,1E0,-9.5251334E-1,7.0760936E-1,2.3878128E-3,-1.3238642E-3,3.9929274E-4,-3.557744E-3,2.6280782E-3,-3.5049485E-3,-6.5262336E-4,-2.759807E-3],"split_indices":[4,1,4,4,0,0,1,0,0,1,3,0,9,1,1,0,0,0,0,0,0,0,0],"split_type":[0,0,0,0,0,0,0,0,0,0,0,0,0,0,0,0,0,0,0,0,0,0,0],"sum_hessian":[6.7E2,3.4E2,3.3E2,3.35E2,5E0,2.54E2,7.6E1,8.7E1,2.48E2,2.11E2,4.3E1,4.9E1,2.7E1,5.7E1,1.54E2,3.1E1,1.2E1,1.3E1,1.4E1,3E0,5.4E1,1.27E2,2.7E1],"tree_param":{"num_deleted":"0","num_feature":"30","num_nodes":"23","size_leaf_vector":"1"}},{"base_weights":[-6.891991E-4,4.628678E-2,-4.660013E-2,2.5716447E-3,9.733783E-4,-6.078178E-2,1.1196214E-2,-8.334119E-2,1.3035901E-4,-2.2050634E-3,3.800052E-2,-1.3621515E-1,-5.5022348E-2,2.4998162E-3,-3.4261023E-4,-4.7893245E-3,-6.6711183E-4,-8.941595E-4,-3.2783872E-3],"categories":[],"categories_nodes":[],"categories_segments":[],"categories_sizes":[],"default_left":[0,0,0,0,0,0,0,0,0,0,0,0,0,0,0,0,0,0,0],"id":15,"left_children":[1,3,5,-1,-1,7,9,11,-1,-1,13,15,17,-1,-1,-1,-1,-1,-1],"loss_changes":[1.4773786E0,1.7100322E-1,2.9012632E-1,0E0,0E0,4.2019916E-1,1.510903E-1,2.908193E-1,0E0,0E0,1.2527092E-1,1.7097008E-1,1.7395952E-1,0E0,0E0,0E0,0E0,0E0,0E0],"parents":[2147483647,0,0,1,1,2,2,5,5,6,6,7,7,10,10,11,11,12,12],"right_children":[2,4,6,-1,-1,8,10,12,-1,-1,14,16,18,-1,-1,-1,-1,-1,-1],"split_conditions":[5E-1,-5E-1,1E0,2.5716447E-3,9.733783E-4,1E0,-5.987423E-1,-3.3691192E-1,1.3035901E-4,-2.2050634E-3,1E0,5.5452126E-1,6E-1,2.4998162E-3,-3.4261023E-4,-4.7893245E-3,-6.6711183E-4,-8.941595E-4,-3.2783872E-3],"split_indices":[4,4,7,0,0,6,0,1,0,0,9,0,2,0,0,0,0,0,0],"split_type":[0,0,0,0,0,0,0,0,0,0,0,0,0,0,0,0,0,0,0],"sum_hessian":[6.84E2,3.37E2,3.47E2,8.5E1,2.52E2,2.8E2,6.7E1,2.09E2,7.1E1,1.5E1,5.2E1,7.1E1,1.38E2,2.8E1,2.4E1,5.8E1,1.3E1,9.6E1,4.2E1],"tree_param":{"num_deleted":"0","num_feature":"30","num_nodes":"19","size_leaf_vector":"1"}},{"base_weights":[-2.0337624E-3,4.6236753E-2,-4.98722E-2,1.9264163E-3,6.704828E-4,-3.2467406E-2,-3.2365643E-3,-4.49233E-2,1.7063436E-3,-6.032276E-2,5.9225084E-4,-2.4344255E-3,1.5999966E-4],"categories":[],"categories_nodes":[],"categories_segments":[],"categories_sizes":[],"default_left":[0,0,0,0,0,0,0,0,0,0,0,0,0],"id":16,"left_children":[1,3,5,-1,-1,7,-1,9,-1,11,-1,-1,-1],"loss_changes":[1.5105698E0,1.2997466E-1,3.1691253E-1,0E0,0E0,2.844226E-1,0E0,2.2920778E-1,0E0,2.586922E-1,0E0,0E0,0E0],"parents":[2147483647,0,0,1,1,2,2,5,5,7,7,9,9],"right_children":[2,4,6,-1,-1,8,-1,10,-1,12,-1,-1,-1],"split_conditions":[5E-1,1E0,1.5E0,1.9264163E-3,6.704828E-4,6.9310915E-1,-3.2365643E-3,1E0,1.7063436E-3,1E0,5.9225084E-4,-2.4344255E-3,1.5999966E-4],"split_indices":[4,22,4,0,0,0,0,6,0,7,0,0,0],"split_type":[0,0,0,0,0,0,0,0,0,0,0,0,0],"sum_hessian":[6.53E2,3.24E2,3.29E2,1.82E2,1.42E2,2.55E2,7.4E1,2.25E2,3E1,1.83E2,4.2E1,1.4E2,4.3E1],"tree_param":{"num_deleted":"0","num_feature":"30","num_nodes":"13","size_leaf_vector":"1"}},{"base_weights":[-2.6008138E-3,2.2338519E-2,-2.9856805E-2,-4.877549E-3,3.7637923E-2,-4.5674313E-2,3.137873E-4,4.4272942E-4,-5.657547E-2,1.6504173E-3,6.383185E-5,-5.9451096E-2,3.8653935E-4,-3.5428717E-3,-0E0,-7.362394E-2,-3.7856403E-4,-3.6969623E-3,-1.5515989E-3],"categories":[],"categories_nodes":[],"categories_segments":[],"categories_sizes":[],"default_left":[0,0,0,0,0,0,0,0,0,0,0,0,0,0,0,0,0,0,0],"id":17,"left_children":[1,3,5,7,9,11,-1,-1,13,-1,-1,15,-1,-1,-1,17,-1,-1,-1],"loss_changes":[4.5685515E-1,1.484796E-1,2.0942011E-1,1.2996395E-1,1.3336644E-1,1.934168E-1,0E0,0E0,1.3043769E-1,0E0,0E0,1.1735499E-1,0E0,0E0,0E0,1.3633394E-1,0E0,0E0,0E0],"parents":[2147483647,0,0,1,1,2,2,3,3,4,4,5,5,8,8,11,11,15,15],"right_children":[2,4,6,8,10,12,-1,-1,14,-1,-1,16,-1,-1,-1,18,-1,-1,-1],"split_conditions":[1E0,-3.3691192E-1,5.106254E-1,1E0,5.492122E-1,1E0,3.137873E-4,4.4272942E-4,2E-1,1.6504173E-3,6.383185E-5,1E0,3.8653935E-4,-3.5428717E-3,-0E0,-3.3691192E-1,-3.7856403E-4,-3.6969623E-3,-1.5515989E-3],"split_indices":[22,1,0,8,1,7,0,0,2,0,0,6,0,0,0,1,0,0,0],"split_type":[0,0,0,0,0,0,0,0,0,0,0,0,0,0,0,0,0,0,0],"sum_hessian":[6.7E2,3.48E2,3.22E2,1.23E2,2.25E2,2.33E2,8.9E1,8.8E1,3.5E1,1.49E2,7.6E1,1.9E2,4.3E1,1.7E1,1.8E1,1.44E2,4.6E1,4.2E1,1.02E2],"tree_param":{"num_deleted":"0","num_feature":"30","num_nodes":"19","size_leaf_vector":"1"}},{"base_weights":[1.3191721E-3,4.5131747E-2,-4.2205043E-2,2.2908852E-3,1.0113596E-3,-5.6925684E-2,1.300053E-2,-7.672559E-2,5.0093182E-3,1.3148366E-3,-1.7964854E-3,-9.1841176E-2,-5.8104616E-4,-2.4305223E-3,3.3344164E-2,-2.4339003E-3,-6.2996037E-3,2.2402478E-3,-5.8469333E-4],"categories":[],"categories_nodes":[],"categories_segments":[],"categories_sizes":[],"default_left":[0,0,0,0,0,0,0,0,0,0,0,0,0,0,0,0,0,0,0],"id":18,"left_children":[1,3,5,-1,-1,7,9,11,13,-1,-1,15,-1,-1,17,-1,-1,-1,-1],"loss_changes":[1.3141512E0,1.1057174E-1,2.8472447E-1,0E0,0E0,3.4275883E-1,1.6035312E-1,1.6875708E-1,1.5624319E-1,0E0,0E0,1.6927576E-1,0E0,0E0,1.165214E-1,0E0,0E0,0E0,0E0],"parents":[2147483647,0,0,1,1,2,2,5,5,6,6,7,7,8,8,11,11,14,14],"right_children":[2,4,6,-1,-1,8,10,12,14,-1,-1,16,-1,-1,18,-1,-1,-1,-1],"split_conditions":[5E-1,-5E-1,1E0,2.2908852E-3,1.0113596E-3,1E0,1E0,5.5452126E-1,-5.987423E-1,1.3148366E-3,-1.7964854E-3,4.8407888E-1,-5.8104616E-4,-2.4305223E-3,1E0,-2.4339003E-3,-6.2996037E-3,2.2402478E-3,-5.8469333E-4],"split_indices":[4,4,6,0,0,7,25,0,0,0,0,0,0,0,9,0,0,0,0],"split_type":[0,0,0,0,0,0,0,0,0,0,0,0,0,0,0,0,0,0,0],"sum_hessian":[6.88E2,3.44E2,3.44E2,8.9E1,2.55E2,2.73E2,7.1E1,2.08E2,6.5E1,5.1E1,2E1,1.63E2,4.5E1,1.5E1,5E1,1.51E2,1.2E1,2.9E1,2.1E1],"tree_param":{"num_deleted":"0","num_feature":"30","num_nodes":"19","size_leaf_vector":"1"}},{"base_weights":[-1.0583866E-3,3.8365845E-2,-4.198099E-2,2.1311273E-3,2.7094048E-2,-5.677637E-2,1.655899E-2,1.4234186E-3,4.0567455E-5,-2.0544881E-2,-8.565111E-2,1.2211913E-3,-2.1166021E-3,-2.9550246E-3,-7.2287956E-5,-6.760526E-2,-4.959768E-3,-8.2141545E-4,-2.9567797E-3],"categories":[],"categories_nodes":[],"categories_segments":[],"categories_sizes":[],"default_left":[0,0,0,0,0,0,0,0,0,0,0,0,0,0,0,0,0,0,0],"id":19,"left_children":[1,3,5,-1,7,9,11,-1,-1,13,15,-1,-1,-1,-1,17,-1,-1,-1],"loss_changes":[1.0796859E0,1.1425191E-1,2.8987885E-1,0E0,1.2895185E-1,2.6521373E-1,1.3623293E-1,0E0,0E0,1.5873379E-1,1.8031752E-1,0E0,0E0,0E0,0E0,1.3609362E-1,0E0,0E0,0E0],"parents":[2147483647,0,0,1,1,2,2,4,4,5,5,6,6,9,9,10,10,15,15],"right_children":[2,4,6,-1,8,10,12,-1,-1,14,16,-1,-1,-1,-1,18,-1,-1,-1],"split_conditions":[5E-1,-5E-1,1E0,2.1311273E-3,1E0,1E0,1E0,1.4234186E-3,4.0567455E-5,-7.0117986E-1,1.5E0,1.2211913E-3,-2.1166021E-3,-2.9550246E-3,-7.2287956E-5,0E0,-4.959768E-3,-8.2141545E-4,-2.9567797E-3],"split_indices":[4,4,7,0,22,22,29,0,0,1,4,0,0,0,0,2,0,0,0],"split_type":[0,0,0,0,0,0,0,0,0,0,0,0,0,0,0,0,0,0,0],"sum_hessian":[6.68E2,3.39E2,3.29E2,8.4E1,2.55E2,2.64E2,6.5E1,1.4E2,1.15E2,1.19E2,1.45E2,5.2E1,1.3E1,2.1E1,9.8E1,1.2E2,2.5E1,5.4E1,6.6E1],"tree_param":{"num_deleted":"0","num_feature":"30","num_nodes":"19","size_leaf_vector":"1"}},{"base_weights":[-1.180274E-3,4.1511953E-2,-4.4286188E-2,4.475857E-2,-1.6310689E-3,-5.8220264E-2,1.3771565E-2,-1.6134776E-3,1.4361914E-3,-7.361873E-2,-1.17877426E-4,1.1107583E-3,-2.3491555E-3,-8.085182E-2,2.3086253E-3,-3.339047E-3,-1.2492556E-3],"categories":[],"categories_nodes":[],"categories_segments":[],"categories_sizes":[],"default_left":[0,0,0,0,0,0,0,0,0,0,0,0,0,0,0,0,0],"id":20,"left_children":[1,3,5,7,-1,9,11,-1,-1,13,-1,-1,-1,15,-1,-1,-1],"loss_changes":[1.2663943E0,1.0749459E-1,2.8273076E-1,1.03355825E-1,0E0,2.2492611E-1,1.3756542E-1,0E0,0E0,2.382034E-1,0E0,0E0,0E0,2.289356E-1,0E0,0E0,0E0],"parents":[2147483647,0,0,1,1,2,2,3,3,5,5,6,6,9,9,13,13],"right_children":[2,4,6,8,-1,10,12,-1,-1,14,-1,-1,-1,16,-1,-1,-1],"split_conditions":[5E-1,8.985392E-1,1E0,-8.978262E-1,-1.6310689E-3,5.156814E-1,1E0,-1.6134776E-3,1.4361914E-3,1E0,-1.17877426E-4,1.1107583E-3,-2.3491555E-3,2.1395403E-1,2.3086253E-3,-3.339047E-3,-1.2492556E-3],"split_indices":[4,1,7,0,0,0,29,0,0,11,0,0,0,1,0,0,0],"split_type":[0,0,0,0,0,0,0,0,0,0,0,0,0,0,0,0,0],"sum_hessian":[6.87E2,3.44E2,3.43E2,3.34E2,1E1,2.78E2,6.5E1,9E0,3.25E2,2.15E2,6.3E1,5.3E1,1.2E1,2.06E2,9E0,1.14E2,9.2E1],"tree_param":{"num_deleted":"0","num_feature":"30","num_nodes":"17","size_leaf_vector":"1"}},{"base_weights":[-3.447E-4,4.3801535E-2,-4.477904E-2,1.4028242E-3,-2.976106E-3,-1.5686644E-2,-2.1561212E-3,-1.4923915E-1,-6.2186527E-3,-7.93013E-3,2.7044688E-3,2.441856E-4,-4.8194557E-2,-3.306085E-3,8.764451E-7],"categories":[],"categories_nodes":[],"categories_segments":[],"categories_sizes":[],"default_left":[0,0,0,0,0,0,0,0,0,0,0,0,0,0,0],"id":21,"left_children":[1,3,5,-1,-1,7,-1,9,11,-1,-1,-1,13,-1,-1],"loss_changes":[1.3594925E0,1.4371079E-1,2.637785E-1,0E0,0E0,1.9831854E-1,0E0,3.1864256E-1,1.00331865E-1,0E0,0E0,0E0,1.3810556E-1,0E0,0E0],"parents":[2147483647,0,0,1,1,2,2,5,5,7,7,8,8,12,12],"right_children":[2,4,6,-1,-1,8,-1,10,12,-1,-1,-1,14,-1,-1],"split_conditions":[5E-1,9.1229004E-1,1E0,1.4028242E-3,-2.976106E-3,-8E-1,-2.1561212E-3,1E0,1.5E0,-7.93013E-3,2.7044688E-3,2.441856E-4,-2.3745921E-1,-3.306085E-3,8.764451E-7],"split_indices":[4,1,22,0,0,2,0,24,4,0,0,0,1,0,0],"split_type":[0,0,0,0,0,0,0,0,0,0,0,0,0,0,0],"sum_hessian":[6.92E2,3.46E2,3.46E2,3.4E2,6E0,1.69E2,1.77E2,1E1,1.59E2,7E0,3E0,1.17E2,4.2E1,1.9E1,2.3E1],"tree_param":{"num_deleted":"0","num_feature":"30","num_nodes":"15","size_leaf_vector":"1"}},{"base_weights":[3.9454564E-3,4.313164E-2,-3.518283E-2,1.3907143E-3,-1.536968E-3,-2.0057986E-2,-8.574238E-2,-3.1595234E-2,9.1900356E-4,-1.11029E-1,-2.7241948E-4,-2.3635274E-2,-3.6390836E-3,-1.3067695E-1,1.0432968E-3,-1.9386973E-3,-2.4031095E-4,-4.2713103E-3,5.46194E-4],"categories":[],"categories_nodes":[],"categories_segments":[],"categories_sizes":[],"default_left":[0,0,0,0,0,0,0,0,0,0,0,0,0,0,0,0,0,0,0],"id":22,"left_children":[1,3,5,-1,-1,7,9,11,-1,13,-1,15,-1,17,-1,-1,-1,-1,-1],"loss_changes":[1.0449562E0,1.0464281E-1,2.4817744E-1,0E0,0E0,1.546854E-1,1.357814E-1,1.3866855E-1,0E0,1.7372239E-1,0E0,1.2088468E-1,0E0,1.0168147E-1,0E0,0E0,0E0,0E0,0E0],"parents":[2147483647,0,0,1,1,2,2,5,5,6,6,7,7,9,9,11,11,13,13],"right_children":[2,4,6,-1,-1,8,10,12,-1,14,-1,16,-1,18,-1,-1,-1,-1,-1],"split_conditions":[5E-1,8.985392E-1,1.5E0,1.3907143E-3,-1.536968E-3,5.5452126E-1,1E0,4.8039073E-1,9.1900356E-4,7.9371226E-1,-2.7241948E-4,-4.261691E-1,-3.6390836E-3,8.098155E-1,1.0432968E-3,-1.9386973E-3,-2.4031095E-4,-4.2713103E-3,5.46194E-4],"split_indices":[4,1,4,0,0,0,26,0,0,3,0,1,0,1,0,0,0,0,0],"split_type":[0,0,0,0,0,0,0,0,0,0,0,0,0,0,0,0,0,0,0],"sum_hessian":[6.8E2,3.41E2,3.39E2,3.31E2,1E1,2.63E2,7.6E1,2.16E2,4.7E1,5.6E1,2E1,2E2,1.6E1,5E1,6E0,5.3E1,1.47E2,4.7E1,3E0],"tree_param":{"num_deleted":"0","num_feature":"30","num_nodes":"19","size_leaf_vector":"1"}},{"base_weights":[-2.2888156E-3,1.0752693E-3,-4.1044388E-2,-5.6653805E-2,1.5883341E-2,-7.7185035E-2,7.648426E-3,1.1442314E-3,-1.8223897E-3,-8.048056E-2,2.8781963E-3,-5.0796466E-3,7.6870184E-4,-2.7621482E-3,-8.6856144E-4],"categories":[],"categories_nodes":[],"categories_segments":[],"categories_sizes":[],"default_left":[0,0,0,0,0,0,0,0,0,0,0,0,0,0,0],"id":23,"left_children":[1,-1,3,5,7,9,11,-1,-1,13,-1,-1,-1,-1,-1],"loss_changes":[1.0142833E0,0E0,3.0798686E-1,3.6304367E-1,1.22553974E-1,1.1956036E-1,1.9297591E-1,0E0,0E0,1.0751188E-1,0E0,0E0,0E0,0E0,0E0],"parents":[2147483647,0,0,2,2,3,3,4,4,5,5,6,6,9,9],"right_children":[2,-1,4,6,8,10,12,-1,-1,14,-1,-1,-1,-1,-1],"split_conditions":[5E-1,1.0752693E-3,1E0,1E0,1E0,1E0,-7.1243405E-1,1.1442314E-3,-1.8223897E-3,5.5452126E-1,2.8781963E-3,-5.0796466E-3,7.6870184E-4,-2.7621482E-3,-8.6856144E-4],"split_indices":[4,0,6,7,25,19,3,0,0,0,0,0,0,0,0],"split_type":[0,0,0,0,0,0,0,0,0,0,0,0,0,0,0],"sum_hessian":[6.85E2,3.44E2,3.41E2,2.69E2,7.2E1,2.05E2,6.4E1,5.7E1,1.5E1,2.02E2,3E0,5E0,5.9E1,1.63E2,3.9E1],"tree_param":{"num_deleted":"0","num_feature":"30","num_nodes":"15","size_leaf_vector":"1"}},{"base_weights":[-3.2137297E-4,3.727828E-2,-3.6152523E-2,1.6241113E-3,1.598773E-2,-4.916567E-2,4.4444785E-4,1.8875626E-3,-3.044644E-6,-6.9606304E-2,4.1293082E-4,-1.5535423E-3,-3.5965522E-3],"categories":[],"categories_nodes":[],"categories_segments":[],"categories_sizes":[],"default_left":[0,0,0,0,0,0,0,0,0,0,0,0,0],"id":24,"left_children":[1,3,5,-1,7,9,-1,-1,-1,11,-1,-1,-1],"loss_changes":[9.1062105E-1,1.1046404E-1,2.3427764E-1,0E0,1.1841482E-1,3.6430615E-1,0E0,0E0,0E0,1.692425E-1,0E0,0E0,0E0],"parents":[2147483647,0,0,1,1,2,2,4,4,5,5,9,9],"right_children":[2,4,6,-1,8,10,-1,-1,-1,12,-1,-1,-1],"split_conditions":[5E-1,1E0,1E0,1.6241113E-3,-5E-1,1E0,4.4444785E-4,1.8875626E-3,-3.044644E-6,1.5E0,4.1293082E-4,-1.5535423E-3,-3.5965522E-3],"split_indices":[4,22,6,0,4,7,0,0,0,4,0,0,0],"split_type":[0,0,0,0,0,0,0,0,0,0,0,0,0],"sum_hessian":[6.75E2,3.28E2,3.47E2,1.8E2,1.48E2,2.78E2,6.9E1,3.9E1,1.09E2,2.11E2,6.7E1,1.58E2,5.3E1],"tree_param":{"num_deleted":"0","num_feature":"30","num_nodes":"13","size_leaf_vector":"1"}},{"base_weights":[-4.440825E-3,1.0427629E-3,-4.358272E-2,-5.510389E-2,2.1171918E-4,-7.515399E-2,-0E0,-5.3691706E-3,-6.368431E-2,-2.0281817E-3,2.458832E-3],"categories":[],"categories_nodes":[],"categories_segments":[],"categories_sizes":[],"default_left":[0,0,0,0,0,0,0,0,0,0,0],"id":25,"left_children":[1,-1,3,5,-1,7,-1,-1,9,-1,-1],"loss_changes":[1.0503654E0,0E0,2.0540816E-1,3.1722796E-1,0E0,2.1711886E-1,0E0,0E0,1.09003246E-1,0E0,0E0],"parents":[2147483647,0,0,2,2,3,3,5,5,8,8],"right_children":[2,-1,4,6,-1,8,-1,-1,10,-1,-1],"split_conditions":[5E-1,1.0427629E-3,1E0,1E0,2.1171918E-4,-8.052193E-1,-0E0,-5.3691706E-3,1E0,-2.0281817E-3,2.458832E-3],"split_indices":[4,0,7,6,0,1,0,0,19,0,0],"split_type":[0,0,0,0,0,0,0,0,0,0,0],"sum_hessian":[6.83E2,3.4E2,3.43E2,2.81E2,6.2E1,2.07E2,7.4E1,1.9E1,1.88E2,1.84E2,4E0],"tree_param":{"num_deleted":"0","num_feature":"30","num_nodes":"11","size_leaf_vector":"1"}},{"base_weights":[1.5073789E-3,1.1393089E-3,-3.3603664E-2,-4.5343243E-2,4.9721653E-4,-8.805711E-2,-2.7403E-2,1.6566819E-3,-2.9770816E-3,-0E0,-1.6357233E-3],"categories":[],"categories_nodes":[],"categories_segments":[],"categories_sizes":[],"default_left":[0,0,0,0,0,0,0,0,0,0,0],"id":26,"left_children":[1,-1,3,5,-1,7,9,-1,-1,-1,-1],"loss_changes":[8.6220175E-1,0E0,2.044178E-1,2.0066124E-1,0E0,1.3607961E-1,1.4377001E-1,0E0,0E0,0E0,0E0],"parents":[2147483647,0,0,2,2,3,3,5,5,6,6],"right_children":[2,-1,4,6,-1,8,10,-1,-1,-1,-1],"split_conditions":[5E-1,1.1393089E-3,5.5452126E-1,-3.8874105E-1,4.9721653E-4,-9.5251334E-1,1E0,1.6566819E-3,-2.9770816E-3,-0E0,-1.6357233E-3],"split_indices":[4,0,0,1,0,1,22,0,0,0,0],"split_type":[0,0,0,0,0,0,0,0,0,0,0],"sum_hessian":[6.72E2,3.31E2,3.41E2,2.78E2,6.3E1,8E1,1.98E2,5E0,7.5E1,1E2,9.8E1],"tree_param":{"num_deleted":"0","num_feature":"30","num_nodes":"11","size_leaf_vector":"1"}},{"base_weights":[-1.0879339E-3,1.0057478E-3,-3.5988655E-2,-1.1897003E-2,-1.7778411E-3,-3.913363E-3,-8.398338E-5],"categories":[],"categories_nodes":[],"categories_segments":[],"categories_sizes":[],"default_left":[0,0,0,0,0,0,0],"id":27,"left_children":[1,-1,3,5,-1,-1,-1],"loss_changes":[8.349831E-1,0E0,1.8624595E-1,1.7253439E-1,0E0,0E0,0E0],"parents":[2147483647,0,0,2,2,3,3],"right_children":[2,-1,4,6,-1,-1,-1],"split_conditions":[5E-1,1.0057478E-3,1E0,-8E-1,-1.7778411E-3,-3.913363E-3,-8.398338E-5],"split_indices":[4,0,22,2,0,0,0],"split_type":[0,0,0,0,0,0,0],"sum_hessian":[6.9E2,3.45E2,3.45E2,1.72E2,1.73E2,1.1E1,1.61E2],"tree_param":{"num_deleted":"0","num_feature":"30","num_nodes":"7","size_leaf_vector":"1"}},{"base_weights":[1.9518718E-3,1.0022509E-3,-2.9680897E-2,-1.6214741E-2,-2.14598E-3,-7.39327E-2,-5.3511104E-3,-1.080306E-1,2.5315134E-2,3.2624602E-4,-1.6845444E-3,-1.0520119E-4,-5.5264765E-3,-3.4054213E-3,3.4051982E-3],"categories":[],"categories_nodes":[],"categories_segments":[],"categories_sizes":[],"default_left":[0,0,0,0,0,0,0,0,0,0,0,0,0,0,0],"id":28,"left_children":[1,-1,3,5,-1,7,9,11,13,-1,-1,-1,-1,-1,-1],"loss_changes":[6.6307837E-1,0E0,1.7690927E-1,1.5019804E-1,0E0,1.3992845E-1,1.8164225E-1,2.1581861E-1,1.2275528E-1,0E0,0E0,0E0,0E0,0E0,0E0],"parents":[2147483647,0,0,2,2,3,3,5,5,6,6,7,7,8,8],"right_children":[2,-1,4,6,-1,8,10,12,14,-1,-1,-1,-1,-1,-1],"split_conditions":[5E-1,1.0022509E-3,1.5E0,-8.028407E-1,-2.14598E-3,1E0,5.743123E-1,1E0,1E0,3.2624602E-4,-1.6845444E-3,-1.0520119E-4,-5.5264765E-3,-3.4054213E-3,3.4051982E-3],"split_indices":[4,0,4,3,0,9,1,22,22,0,0,0,0,0,0],"split_type":[0,0,0,0,0,0,0,0,0,0,0,0,0,0,0],"sum_hessian":[6.65E2,3.35E2,3.3E2,2.52E2,7.8E1,3.8E1,2.14E2,2.9E1,9E0,1.61E2,5.3E1,1.3E1,1.6E1,3E0,6E0],"tree_param":{"num_deleted":"0","num_feature":"30","num_nodes":"15","size_leaf_vector":"1"}},{"base_weights":[-1.3273895E-3,3.3187333E-2,-3.6342457E-2,1.9118349E-3,2.193213E-2,-7.487322E-3,-6.2222414E-2,1.250445E-3,-4.7703747E-5,-1.3508259E-1,7.6119686E-5,-8.4710754E-2,-7.7626115E-4,-6.3199154E-3,-4.6654626E-5,-3.0396588E-3,-0E0],"categories":[],"categories_nodes":[],"categories_segments":[],"categories_sizes":[],"default_left":[0,0,0,0,0,0,0,0,0,0,0,0,0,0,0,0,0],"id":29,"left_children":[1,3,5,-1,7,9,11,-1,-1,13,-1,15,-1,-1,-1,-1,-1],"loss_changes":[8.160756E-1,1.0709098E-1,2.4408409E-1,0E0,1.20411985E-1,2.200001E-1,1.3129646E-1,0E0,0E0,1.0476644E-1,0E0,1.4431864E-1,0E0,0E0,0E0,0E0,0E0],"parents":[2147483647,0,0,1,1,2,2,4,4,5,5,6,6,9,9,11,11],"right_children":[2,4,6,-1,8,10,12,-1,-1,14,-1,16,-1,-1,-1,-1,-1],"split_conditions":[5E-1,-5E-1,1E0,1.9118349E-3,1E0,-8E-1,2.1395403E-1,1.250445E-3,-4.7703747E-5,1E0,7.6119686E-5,1E0,-7.7626115E-4,-6.3199154E-3,-4.6654626E-5,-3.0396588E-3,-0E0],"split_indices":[4,4,22,0,22,2,1,0,0,27,0,7,0,0,0,0,0],"split_type":[0,0,0,0,0,0,0,0,0,0,0,0,0,0,0,0,0],"sum_hessian":[6.74E2,3.38E2,3.36E2,8.8E1,2.5E2,1.61E2,1.75E2,1.38E2,1.12E2,1.2E1,1.49E2,1.06E2,6.9E1,7E0,5E0,8.8E1,1.8E1],"tree_param":{"num_deleted":"0","num_feature":"30","num_nodes":"17","size_leaf_vector":"1"}},{"base_weights":[-2.7368506E-3,9.548153E-4,-3.6096208E-2,-4.7717236E-2,1.0294259E-2,-6.829916E-2,2.1885817E-4,-2.2523906E-3,1.0424654E-3,-7.224963E-2,2.818816E-3,-1.7120524E-3,-3.4881013E-3],"categories":[],"categories_nodes":[],"categories_segments":[],"categories_sizes":[],"default_left":[0,0,0,0,0,0,0,0,0,0,0,0,0],"id":30,"left_children":[1,-1,3,5,7,9,-1,-1,-1,11,-1,-1,-1],"loss_changes":[7.867938E-1,0E0,1.9186601E-1,3.2394934E-1,1.4028463E-1,1.3294917E-1,0E0,0E0,0E0,1.1400747E-1,0E0,0E0,0E0],"parents":[2147483647,0,0,2,2,3,3,4,4,5,5,9,9],"right_children":[2,-1,4,6,8,10,-1,-1,-1,12,-1,-1,-1],"split_conditions":[5E-1,9.548153E-4,1E0,1E0,-5.987423E-1,1E0,2.1885817E-4,-2.2523906E-3,1.0424654E-3,1.5E0,2.818816E-3,-1.7120524E-3,-3.4881013E-3],"split_indices":[4,0,7,6,0,21,0,0,0,4,0,0,0],"split_type":[0,0,0,0,0,0,0,0,0,0,0,0,0],"sum_hessian":[6.81E2,3.33E2,3.48E2,2.8E2,6.8E1,2.05E2,7.5E1,1.4E1,5.4E1,2.01E2,4E0,1.52E2,4.9E1],"tree_param":{"num_deleted":"0","num_feature":"30","num_nodes":"13","size_leaf_vector":"1"}},{"base_weights":[4.1291467E-4,8.545143E-4,-2.6735192E-2,-3.865298E-2,1.505197E-2,-2.262605E-3,-2.3696892E-2,1.1160134E-3,-1.3654615E-3,-8.6874585E-4,3.5567072E-3],"categories":[],"categories_nodes":[],"categories_segments":[],"categories_sizes":[],"default_left":[0,0,0,0,0,0,0,0,0,0,0],"id":31,"left_children":[1,-1,3,5,7,-1,9,-1,-1,-1,-1],"loss_changes":[5.298144E-1,0E0,1.7770168E-1,1.406903E-1,1.02637924E-1,0E0,1.4132221E-1,0E0,0E0,0E0,0E0],"parents":[2147483647,0,0,2,2,3,3,4,4,6,6],"right_children":[2,-1,4,6,8,-1,10,-1,-1,-1,-1],"split_conditions":[5E-1,8.545143E-4,5.156814E-1,-4.1150123E-1,6E-1,-2.262605E-3,1E0,1.1160134E-3,-1.3654615E-3,-8.6874585E-4,3.5567072E-3],"split_indices":[4,0,0,1,2,0,18,0,0,0,0],"split_type":[0,0,0,0,0,0,0,0,0,0,0],"sum_hessian":[6.94E2,3.43E2,3.51E2,2.75E2,7.6E1,7.7E1,1.98E2,5.7E1,1.9E1,1.92E2,6E0],"tree_param":{"num_deleted":"0","num_feature":"30","num_nodes":"11","size_leaf_vector":"1"}},{"base_weights":[-6.2931917E-4,3.1238724E-2,-3.1491652E-2,1.8366082E-3,6.047662E-4,-4.495613E-2,5.9216307E-4,-6.0915817E-2,1.4720894E-4,-9.978547E-2,-4.3561164E-2,-3.7255152E-3,-0E0,-1.7126661E-4,-1.9879593E-3],"categories":[],"categories_nodes":[],"categories_segments":[],"categories_sizes":[],"default_left":[0,0,0,0,0,0,0,0,0,0,0,0,0,0,0],"id":32,"left_children":[1,3,5,-1,-1,7,-1,9,-1,11,13,-1,-1,-1,-1],"loss_changes":[6.639029E-1,1.01034164E-1,2.4059835E-1,0E0,0E0,2.2419727E-1,0E0,1.2481427E-1,0E0,1.4104915E-1,1.1937547E-1,0E0,0E0,0E0,0E0],"parents":[2147483647,0,0,1,1,2,2,5,5,7,7,9,9,10,10],"right_children":[2,4,6,-1,-1,8,-1,10,-1,12,14,-1,-1,-1,-1],"split_conditions":[5E-1,-5E-1,1E0,1.8366082E-3,6.047662E-4,1E0,5.9216307E-4,-3.3691192E-1,1.4720894E-4,5.5452126E-1,1E0,-3.7255152E-3,-0E0,-1.7126661E-4,-1.9879593E-3],"split_indices":[4,4,6,0,0,7,0,1,0,0,22,0,0,0,0],"split_type":[0,0,0,0,0,0,0,0,0,0,0,0,0,0,0],"sum_hessian":[6.74E2,3.3E2,3.44E2,8.6E1,2.44E2,2.74E2,7E1,2.09E2,6.5E1,6.2E1,1.47E2,4.9E1,1.3E1,5.7E1,9E1],"tree_param":{"num_deleted":"0","num_feature":"30","num_nodes":"15","size_leaf_vector":"1"}},{"base_weights":[-1.059265E-3,8.119938E-4,-2.8746583E-2,-4.0559627E-2,3.5511513E-4,-8.401195E-2,-2.4623228E-2,1.7156479E-3,-9.428447E-2,-8.670905E-4,3.3935013E-3,-1.8912774E-3,-4.784896E-3],"categories":[],"categories_nodes":[],"categories_segments":[],"categories_sizes":[],"default_left":[0,0,0,0,0,0,0,0,0,0,0,0,0],"id":33,"left_children":[1,-1,3,5,-1,7,9,-1,11,-1,-1,-1,-1],"loss_changes":[5.39046E-1,0E0,1.7114818E-1,1.7749369E-1,0E0,1.1011505E-1,1.1258662E-1,0E0,1.10239565E-1,0E0,0E0,0E0,0E0],"parents":[2147483647,0,0,2,2,3,3,5,5,6,6,8,8],"right_children":[2,-1,4,6,-1,8,10,-1,12,-1,-1,-1,-1],"split_conditions":[5E-1,8.119938E-4,5.156814E-1,-4.1150123E-1,3.5511513E-4,-9.5251334E-1,1E0,1.7156479E-3,1E0,-8.670905E-4,3.3935013E-3,-1.8912774E-3,-4.784896E-3],"split_indices":[4,0,0,1,0,1,18,0,29,0,0,0,0],"split_type":[0,0,0,0,0,0,0,0,0,0,0,0,0],"sum_hessian":[6.91E2,3.41E2,3.5E2,2.73E2,7.7E1,7.1E1,2.02E2,4E0,6.7E1,1.97E2,5E0,4.7E1,2E1],"tree_param":{"num_deleted":"0","num_feature":"30","num_nodes":"13","size_leaf_vector":"1"}},{"base_weights":[5.4621035E-3,2.4852376E-2,-1.4746107E-2,-3.8210757E-3,1.1841254E-3,-1.0076783E-2,-2.7757476E-3,2.3504859E-4,-3.273379E-3,-3.6659636E-2,4.6303235E-3,-1.7219519E-3,2.8090677E-4,1.8544026E-3,-2.3662816E-4],"categories":[],"categories_nodes":[],"categories_segments":[],"categories_sizes":[],"default_left":[0,0,0,0,0,0,0,0,0,0,0,0,0,0,0],"id":34,"left_children":[1,3,5,7,-1,9,-1,-1,-1,11,13,-1,-1,-1,-1],"loss_changes":[2.6823467E-1,1.5055667E-1,1.0966601E-1,1.5353352E-1,0E0,1.2624371E-1,0E0,0E0,0E0,1.1435835E-1,1.4915705E-1,0E0,0E0,0E0,0E0],"parents":[2147483647,0,0,1,1,2,2,3,3,5,5,9,9,10,10],"right_children":[2,4,6,8,-1,10,-1,-1,-1,12,14,-1,-1,-1,-1],"split_conditions":[1E0,-4.3017262E-1,8.775168E-1,1E0,1.1841254E-3,-2.8186893E-1,-2.7757476E-3,2.3504859E-4,-3.273379E-3,1E0,-4.3284506E-2,-1.7219519E-3,2.8090677E-4,1.8544026E-3,-2.3662816E-4],"split_indices":[22,1,1,12,0,3,0,0,0,24,3,0,0,0,0],"split_type":[0,0,0,0,0,0,0,0,0,0,0,0,0,0,0],"sum_hessian":[6.81E2,3.5E2,3.31E2,1.16E2,2.34E2,3.14E2,1.7E1,1.04E2,1.2E1,1.14E2,2E2,8E1,3.4E1,3.7E1,1.63E2],"tree_param":{"num_deleted":"0","num_feature":"30","num_nodes":"15","size_leaf_vector":"1"}},{"base_weights":[-1.9499618E-3,8.4113533E-4,-3.2560743E-2,-7.666947E-3,-5.5305164E-2,-3.4547755E-3,-0E0,-9.135011E-2,-3.2426473E-2,-3.53709E-3,-4.9428316E-4,-4.024515E-3,-2.4915782E-3,1.739308E-3,-8.272306E-4],"categories":[],"categories_nodes":[],"categories_segments":[],"categories_sizes":[],"default_left":[0,0,0,0,0,0,0,0,0,0,0,0,0,0,0],"id":35,"left_children":[1,-1,3,5,7,-1,-1,9,11,-1,-1,13,-1,-1,-1],"loss_changes":[6.494406E-1,0E0,1.9250828E-1,1.4248651E-1,1.3581729E-1,0E0,0E0,1.2177706E-1,1.5432474E-1,0E0,0E0,1.0653832E-1,0E0,0E0,0E0],"parents":[2147483647,0,0,2,2,3,3,4,4,7,7,8,8,11,11],"right_children":[2,-1,4,6,8,-1,-1,10,12,-1,-1,14,-1,-1,-1],"split_conditions":[5E-1,8.4113533E-4,1E0,-8E-1,-3.73186E-1,-3.4547755E-3,-0E0,1E0,1E0,-3.53709E-3,-4.9428316E-4,-1.9619573E-2,-2.4915782E-3,1.739308E-3,-8.272306E-4],"split_indices":[4,0,22,2,3,0,0,27,9,0,0,0,0,0,0],"split_type":[0,0,0,0,0,0,0,0,0,0,0,0,0,0,0],"sum_hessian":[7.06E2,3.55E2,3.51E2,1.7E2,1.81E2,1.1E1,1.59E2,6.8E1,1.13E2,4.9E1,1.9E1,7.4E1,3.9E1,1.9E1,5.5E1],"tree_param":{"num_deleted":"0","num_feature":"30","num_nodes":"15","size_leaf_vector":"1"}},{"base_weights":[3.6447812E-3,2.9711658E-2,-2.2517659E-2,1.093231E-3,-5.089155E-4,-8.667144E-3,-1.8970317E-3,-7.577082E-2,1.7974507E-3,-9.8194435E-2,3.4410444E-3,8.62233E-4,-5.7025044E-4,-9.395246E-4,-4.922445E-3],"categories":[],"categories_nodes":[],"categories_segments":[],"categories_sizes":[],"default_left":[0,0,0,0,0,0,0,0,0,0,0,0,0,0,0],"id":36,"left_children":[1,3,5,-1,-1,7,-1,9,11,13,-1,-1,-1,-1,-1],"loss_changes":[4.630907E-1,1.0952097E-1,1.8230419E-1,0E0,0E0,1.8547638E-1,0E0,1.556041E-1,1.2373408E-1,1.2109634E-1,0E0,0E0,0E0,0E0,0E0],"parents":[2147483647,0,0,1,1,2,2,5,5,7,7,8,8,9,9],"right_children":[2,4,6,-1,-1,8,-1,10,12,14,-1,-1,-1,-1,-1],"split_conditions":[5E-1,1E0,1.5E0,1.093231E-3,-5.089155E-4,-8.028407E-1,-1.8970317E-3,1E0,1E0,-5.758126E-1,3.4410444E-3,8.62233E-4,-5.7025044E-4,-9.395246E-4,-4.922445E-3],"split_indices":[4,2,4,0,0,3,0,2,22,1,0,0,0,0,0],"split_type":[0,0,0,0,0,0,0,0,0,0,0,0,0,0,0],"sum_hessian":[6.77E2,3.41E2,3.36E2,3E2,4.1E1,2.53E2,8.3E1,3.5E1,2.18E2,3.2E1,3E0,9.7E1,1.21E2,1.7E1,1.5E1],"tree_param":{"num_deleted":"0","num_feature":"30","num_nodes":"15","size_leaf_vector":"1"}},{"base_weights":[1.1851669E-3,8.349581E-4,-2.455688E-2,-1.2035334E-2,-6.318899E-2,-7.556124E-2,-1.2600968E-4,-2.5534637E-3,-0E0,-0E0,-1.5185574E-1,-7.59668E-3,-2.348414E-4],"categories":[],"categories_nodes":[],"categories_segments":[],"categories_sizes":[],"default_left":[0,0,0,0,0,0,0,0,0,0,0,0,0],"id":37,"left_children":[1,-1,3,5,7,9,-1,-1,-1,-1,11,-1,-1],"loss_changes":[4.6882495E-1,0E0,1.5922739E-1,1.23016E-1,1.161353E-1,1.5430096E-1,0E0,0E0,0E0,0E0,1.6999903E-1,0E0,0E0],"parents":[2147483647,0,0,2,2,3,3,4,4,5,5,10,10],"right_children":[2,-1,4,6,8,10,-1,-1,-1,-1,12,-1,-1],"split_conditions":[5E-1,8.349581E-4,1.5E0,-8.9848554E-1,3.4115222E-1,-5.758126E-1,-1.2600968E-4,-2.5534637E-3,-0E0,-0E0,-2E-1,-7.59668E-3,-2.348414E-4],"split_indices":[4,0,4,3,1,1,0,0,0,0,2,0,0],"split_type":[0,0,0,0,0,0,0,0,0,0,0,0,0],"sum_hessian":[6.82E2,3.37E2,3.45E2,2.63E2,8.2E1,2.7E1,2.36E2,6.1E1,2.1E1,1.4E1,1.3E1,7E0,6E0],"tree_param":{"num_deleted":"0","num_feature":"30","num_nodes":"13","size_leaf_vector":"1"}},{"base_weights":[3.7453312E-4,8.29553E-4,-2.550446E-2,-1.1506566E-2,-2.1709471E-3,-2.3828069E-2,9.884762E-4,-9.042391E-2,-1.3711067E-2,4.735026E-4,-4.536302E-3,1.0954476E-4,-1.7193985E-3],"categories":[],"categories_nodes":[],"categories_segments":[],"categories_sizes":[],"default_left":[0,0,0,0,0,0,0,0,0,0,0,0,0],"id":38,"left_children":[1,-1,3,5,-1,7,-1,9,11,-1,-1,-1,-1],"loss_changes":[4.767019E-1,0E0,2.1717049E-1,1.4600676E-1,0E0,1.3146478E-1,0E0,1.8581828E-1,1.4590287E-1,0E0,0E0,0E0,0E0],"parents":[2147483647,0,0,2,2,3,3,5,5,7,7,8,8],"right_children":[2,-1,4,6,-1,8,-1,10,12,-1,-1,-1,-1],"split_conditions":[5E-1,8.29553E-4,1.5E0,1E0,-2.1709471E-3,-8.028407E-1,9.884762E-4,-8.0920076E-1,5.354093E-1,4.735026E-4,-4.536302E-3,1.0954476E-4,-1.7193985E-3],"split_indices":[4,0,4,6,0,3,0,0,1,0,0,0,0],"split_type":[0,0,0,0,0,0,0,0,0,0,0,0,0],"sum_hessian":[6.74E2,3.3E2,3.44E2,2.67E2,7.7E1,2.11E2,5.6E1,2.6E1,1.85E2,9E0,1.7E1,1.31E2,5.4E1],"tree_param":{"num_deleted":"0","num_feature":"30","num_nodes":"13","size_leaf_vector":"1"}},{"base_weights":[-1.8034787E-3,1.7082527E-2,-2.1352245E-2,7.3103164E-4,-1.5985954E-3,-3.3512965E-2,3.4878895E-4,-1.3095775E-3,3.6741936E-4],"categories":[],"categories_nodes":[],"categories_segments":[],"categories_sizes":[],"default_left":[0,0,0,0,0,0,0,0,0],"id":39,"left_children":[1,3,5,-1,-1,7,-1,-1,-1],"loss_changes":[2.3929591E-1,1.651383E-1,1.3091771E-1,0E0,0E0,1.13141894E-1,0E0,0E0,0E0],"parents":[2147483647,0,0,1,1,2,2,5,5],"right_children":[2,4,6,-1,-1,8,-1,-1,-1],"split_conditions":[1E0,1E0,5.106254E-1,7.3103164E-4,-1.5985954E-3,1E0,3.4878895E-4,-1.3095775E-3,3.6741936E-4],"split_indices":[22,12,0,0,0,7,0,0,0],"split_type":[0,0,0,0,0,0,0,0,0],"sum_hessian":[6.46E2,3.26E2,3.2E2,2.97E2,2.9E1,2.36E2,8.4E1,1.95E2,4.1E1],"tree_param":{"num_deleted":"0","num_feature":"30","num_nodes":"9","size_leaf_vector":"1"}},{"base_weights":[-7.693141E-4,7.041927E-4,-2.4805898E-2,-6.7125773E-4,-4.6147503E-2,-5.002827E-4,1.3135414E-3,-9.770114E-4,-3.0437226E-3],"categories":[],"categories_nodes":[],"categories_segments":[],"categories_sizes":[],"default_left":[0,0,0,0,0,0,0,0,0],"id":40,"left_children":[1,-1,3,5,7,-1,-1,-1,-1],"loss_changes":[3.9287597E-1,0E0,1.7068464E-1,1.1327467E-1,1.19022876E-1,0E0,0E0,0E0,0E0],"parents":[2147483647,0,0,2,2,3,3,4,4],"right_children":[2,-1,4,6,8,-1,-1,-1,-1],"split_conditions":[5E-1,7.041927E-4,1E0,3.9870894E-1,1.5E0,-5.002827E-4,1.3135414E-3,-9.770114E-4,-3.0437226E-3],"split_indices":[4,0,22,3,4,0,0,0,0],"split_type":[0,0,0,0,0,0,0,0,0],"sum_hessian":[6.73E2,3.33E2,3.4E2,1.62E2,1.78E2,1.21E2,4.1E1,1.45E2,3.3E1],"tree_param":{"num_deleted":"0","num_feature":"30","num_nodes":"9","size_leaf_vector":"1"}},{"base_weights":[-8.571006E-4,7.2404346E-4,-2.5847811E-2,-3.5590135E-2,1.3069843E-3,-7.946738E-2,-2.5945213E-2,-1.0127427E-1,3.5237815E-4,-4.1511358E-4,-7.082181E-2,-1.6501123E-3,-4.99374E-3,-3.202006E-4,-4.6111667E-3],"categories":[],"categories_nodes":[],"categories_segments":[],"categories_sizes":[],"default_left":[0,0,0,0,0,0,0,0,0,0,0,0,0,0,0],"id":41,"left_children":[1,-1,3,5,-1,7,9,11,-1,-1,13,-1,-1,-1,-1],"loss_changes":[4.19254E-1,0E0,2.2821313E-1,1.1432764E-1,0E0,1.1198515E-1,1.24984846E-1,1.0145953E-1,0E0,0E0,2.3450094E-1,0E0,0E0,0E0,0E0],"parents":[2147483647,0,0,2,2,3,3,5,5,6,6,7,7,10,10],"right_children":[2,-1,4,6,-1,8,10,12,-1,-1,14,-1,-1,-1,-1],"split_conditions":[5E-1,7.2404346E-4,6.9310915E-1,-6E-1,1.3069843E-3,1E0,1E0,-1.3280632E-1,3.5237815E-4,-4.1511358E-4,-1.186928E-1,-1.6501123E-3,-4.99374E-3,-3.202006E-4,-4.6111667E-3],"split_indices":[4,0,0,2,0,5,5,0,0,0,0,0,0,0,0],"split_type":[0,0,0,0,0,0,0,0,0,0,0,0,0,0,0],"sum_hessian":[6.7E2,3.33E2,3.37E2,2.97E2,4E1,5.1E1,2.46E2,4.2E1,9E0,1.96E2,5E1,2.6E1,1.6E1,3E1,2E1],"tree_param":{"num_deleted":"0","num_feature":"30","num_nodes":"15","size_leaf_vector":"1"}},{"base_weights":[9.183902E-5,7.363072E-4,-2.3499435E-2,-6.0723536E-2,-8.5342815E-3,-3.211534E-2,-3.40466E-3,-3.8644092E-4,3.5429345E-3,-1.6994097E-3,2.2413253E-3],"categories":[],"categories_nodes":[],"categories_segments":[],"categories_sizes":[],"default_left":[0,0,0,0,0,0,0,0,0,0,0],"id":42,"left_children":[1,-1,3,5,7,9,-1,-1,-1,-1,-1],"loss_changes":[3.9178383E-1,0E0,1.841667E-1,1.2928548E-1,1.2648286E-1,1.6933987E-1,0E0,0E0,0E0,0E0,0E0],"parents":[2147483647,0,0,2,2,3,3,4,4,5,5],"right_children":[2,-1,4,6,8,10,-1,-1,-1,-1,-1],"split_conditions":[5E-1,7.363072E-4,-3.8874105E-1,-5.758126E-1,1E0,1E0,-3.40466E-3,-3.8644092E-4,3.5429345E-3,-1.6994097E-3,2.2413253E-3],"split_indices":[4,0,1,1,18,24,0,0,0,0,0],"split_type":[0,0,0,0,0,0,0,0,0,0,0],"sum_hessian":[6.78E2,3.35E2,3.43E2,9.6E1,2.47E2,6.4E1,3.2E1,2.4E2,7E0,5.3E1,1.1E1],"tree_param":{"num_deleted":"0","num_feature":"30","num_nodes":"11","size_leaf_vector":"1"}},{"base_weights":[1.156149E-3,6.8431784E-4,-2.0396499E-2,-5.216967E-2,-7.2983177E-3,-2.1558719E-2,-1.2131933E-1,-3.4786938E-4,3.4437317E-3,-1.2654616E-3,1.9356332E-3,-4.809316E-3,2.279367E-4],"categories":[],"categories_nodes":[],"categories_segments":[],"categories_sizes":[],"default_left":[0,0,0,0,0,0,0,0,0,0,0,0,0],"id":43,"left_children":[1,-1,3,5,7,9,11,-1,-1,-1,-1,-1,-1],"loss_changes":[3.1760392E-1,0E0,1.3473663E-1,1.8866956E-1,1.1757562E-1,1.20731756E-1,1.5913945E-1,0E0,0E0,0E0,0E0,0E0,0E0],"parents":[2147483647,0,0,2,2,3,3,4,4,5,5,6,6],"right_children":[2,-1,4,6,8,10,12,-1,-1,-1,-1,-1,-1],"split_conditions":[5E-1,6.8431784E-4,-4.1150123E-1,-5.758126E-1,1E0,1E0,4.9237287E-1,-3.4786938E-4,3.4437317E-3,-1.2654616E-3,1.9356332E-3,-4.809316E-3,2.279367E-4],"split_indices":[4,0,1,1,18,24,0,0,0,0,0,0,0],"split_type":[0,0,0,0,0,0,0,0,0,0,0,0,0],"sum_hessian":[6.79E2,3.41E2,3.38E2,9.6E1,2.42E2,6.8E1,2.8E1,2.35E2,7E0,5.6E1,1.2E1,2.2E1,6E0],"tree_param":{"num_deleted":"0","num_feature":"30","num_nodes":"13","size_leaf_vector":"1"}},{"base_weights":[-3.347692E-4,6.778068E-4,-2.2607798E-2,-3.0487655E-2,1.0408353E-3,-4.0158637E-2,1.8707602E-4,-1.6133413E-3,-0E0],"categories":[],"categories_nodes":[],"categories_segments":[],"categories_sizes":[],"default_left":[0,0,0,0,0,0,0,0,0],"id":44,"left_children":[1,-1,3,5,-1,7,-1,-1,-1],"loss_changes":[3.3756316E-1,0E0,1.5250091E-1,1.0953051E-1,0E0,1.25819E-1,0E0,0E0,0E0],"parents":[2147483647,0,0,2,2,3,3,5,5],"right_children":[2,-1,4,6,-1,8,-1,-1,-1],"split_conditions":[5E-1,6.778068E-4,7.3226213E-1,1E0,1.0408353E-3,1E0,1.8707602E-4,-1.6133413E-3,-0E0],"split_indices":[4,0,0,7,0,6,0,0,0],"split_type":[0,0,0,0,0,0,0,0,0],"sum_hessian":[6.6E2,3.23E2,3.37E2,2.98E2,3.9E1,2.38E2,6E1,1.76E2,6.2E1],"tree_param":{"num_deleted":"0","num_feature":"30","num_nodes":"9","size_leaf_vector":"1"}},{"base_weights":[-0E0,2.7432337E-3,-2.2219648E-3,-4.2228483E-5,2.261211E-3,-7.6760254E-3,8.691698E-4,-1.992068E-2,8.603687E-4,-1.3678479E-3,-1.9241954E-4],"categories":[],"categories_nodes":[],"categories_segments":[],"categories_sizes":[],"default_left":[0,0,0,0,0,0,0,0,0,0,0],"id":45,"left_children":[1,3,-1,5,-1,7,-1,9,-1,-1,-1],"loss_changes":[1.4481062E-1,1.3994625E-1,0E0,1.3741028E-1,0E0,2.2265467E-1,0E0,1.255602E-1,0E0,0E0,0E0],"parents":[2147483647,0,0,1,1,3,3,5,5,7,7],"right_children":[2,4,-1,6,-1,8,-1,10,-1,-1,-1],"split_conditions":[8.775168E-1,1E0,-2.2219648E-3,1E0,2.261211E-3,1E0,8.691698E-4,-3.3691192E-1,8.603687E-4,-1.3678479E-3,-1.9241954E-4],"split_indices":[1,17,0,6,0,7,0,1,0,0,0],"split_type":[0,0,0,0,0,0,0,0,0,0,0],"sum_hessian":[6.79E2,6.54E2,2.5E1,6.29E2,2.5E1,5.01E2,1.28E2,3.77E2,1.24E2,1.27E2,2.5E2],"tree_param":{"num_deleted":"0","num_feature":"30","num_nodes":"11","size_leaf_vector":"1"}},{"base_weights":[2.778966E-3,1.9758783E-2,-1.605952E-2,8.462199E-4,-3.4460075E-2,1.0780861E-3,-6.846985E-4,-5.8310856E-3,-4.5668325E-4],"categories":[],"categories_nodes":[],"categories_segments":[],"categories_sizes":[],"default_left":[0,0,0,0,0,0,0,0,0],"id":46,"left_children":[1,3,5,-1,7,-1,-1,-1,-1],"loss_changes":[2.1916251E-1,1.6591133E-1,1.1216614E-1,0E0,1.2368209E-1,0E0,0E0,0E0,0E0],"parents":[2147483647,0,0,1,1,2,2,4,4],"right_children":[2,4,6,-1,8,-1,-1,-1,-1],"split_conditions":[1E0,1.5E0,-5E-1,8.462199E-4,-8E-1,1.0780861E-3,-6.846985E-4,-5.8310856E-3,-4.5668325E-4],"split_indices":[22,4,4,0,2,0,0,0,0],"split_type":[0,0,0,0,0,0,0,0,0],"sum_hessian":[6.83E2,3.62E2,3.21E2,3.15E2,4.7E1,3.5E1,2.86E2,4E0,4.3E1],"tree_param":{"num_deleted":"0","num_feature":"30","num_nodes":"9","size_leaf_vector":"1"}},{"base_weights":[-1.3384365E-3,5.318662E-4,-2.0583902E-2,-3.295181E-2,7.589363E-4,-4.707698E-2,2.399451E-4,-2.5268935E-3,-8.624069E-4],"categories":[],"categories_nodes":[],"categories_segments":[],"categories_sizes":[],"default_left":[0,0,0,0,0,0,0,0,0],"id":47,"left_children":[1,-1,3,5,-1,7,-1,-1,-1],"loss_changes":[2.516516E-1,0E0,1.9610529E-1,1.6171709E-1,0E0,1.2675905E-1,0E0,0E0,0E0],"parents":[2147483647,0,0,2,2,3,3,5,5],"right_children":[2,-1,4,6,-1,8,-1,-1,-1],"split_conditions":[5E-1,5.318662E-4,1E0,1E0,7.589363E-4,-3.3691192E-1,2.399451E-4,-2.5268935E-3,-8.624069E-4],"split_indices":[4,0,7,6,0,1,0,0,0],"split_type":[0,0,0,0,0,0,0,0,0],"sum_hessian":[6.84E2,3.41E2,3.43E2,2.72E2,7.1E1,2.04E2,6.8E1,6.5E1,1.39E2],"tree_param":{"num_deleted":"0","num_feature":"30","num_nodes":"9","size_leaf_vector":"1"}},{"base_weights":[2.1359292E-3,1.0025565E-2,-5.5122036E-2,7.556057E-4,-1.6468979E-4,-7.809024E-2,-0E0,-3.2408133E-3,-2.4819732E-4],"categories":[],"categories_nodes":[],"categories_segments":[],"categories_sizes":[],"default_left":[0,0,0,0,0,0,0,0,0],"id":48,"left_children":[1,3,5,-1,-1,7,-1,-1,-1],"loss_changes":[2.9775786E-1,1.4070743E-1,1.0298596E-1,0E0,0E0,1.06013864E-1,0E0,0E0,0E0],"parents":[2147483647,0,0,1,1,2,2,5,5],"right_children":[2,4,6,-1,-1,8,-1,-1,-1],"split_conditions":[1.5E0,1E0,3.4115222E-1,7.556057E-4,-1.6468979E-4,1E0,-0E0,-3.2408133E-3,-2.4819732E-4],"split_indices":[4,22,1,0,0,26,0,0,0],"split_type":[0,0,0,0,0,0,0,0,0],"sum_hessian":[6.68E2,5.89E2,7.9E1,3.01E2,2.88E2,5.6E1,2.3E1,3.8E1,1.8E1],"tree_param":{"num_deleted":"0","num_feature":"30","num_nodes":"9","size_leaf_vector":"1"}},{"base_weights":[9.1133325E-4,9.141246E-3,-6.378811E-2,8.011963E-4,-2.2830581E-4,-3.4783368E-3,-8.585845E-4],"categories":[],"categories_nodes":[],"categories_segments":[],"categories_sizes":[],"default_left":[0,0,0,0,0,0,0],"id":49,"left_children":[1,3,5,-1,-1,-1,-1],"loss_changes":[3.6196545E-1,1.8252999E-1,1.24206185E-1,0E0,0E0,0E0,0E0],"parents":[2147483647,0,0,1,1,2,2],"right_children":[2,4,6,-1,-1,-1,-1],"split_conditions":[1.5E0,1E0,-3.1133196E-1,8.011963E-4,-2.2830581E-4,-3.4783368E-3,-8.585845E-4],"split_indices":[4,22,1,0,0,0,0],"split_type":[0,0,0,0,0,0,0],"sum_hessian":[6.89E2,6.13E2,7.6E1,3.02E2,3.11E2,2.9E1,4.7E1],"tree_param":{"num_deleted":"0","num_feature":"30","num_nodes":"7","size_leaf_vector":"1"}},{"base_weights":[-1.2027755E-4,6.542171E-3,-1.5020546E-3,6.7856995E-4,-8.849661E-3,4.4954205E-3,-1.235357E-3,-6.9510593E-4,6.737681E-4],"categories":[],"categories_nodes":[],"categories_segments":[],"categories_sizes":[],"default_left":[0,0,0,0,0,0,0,0,0],"id":50,"left_children":[1,3,-1,-1,5,7,-1,-1,-1],"loss_changes":[2.3263532E-1,1.508142E-1,0E0,0E0,1.3556331E-1,1.0678951E-1,0E0,0E0,0E0],"parents":[2147483647,0,0,1,1,4,4,5,5],"right_children":[2,4,-1,-1,6,8,-1,-1,-1],"split_conditions":[1.5E0,1E0,-1.5020546E-3,6.7856995E-4,6E-1,-2.6731884E-1,-1.235357E-3,-6.9510593E-4,6.737681E-4],"split_indices":[4,22,0,0,2,3,0,0,0],"split_type":[0,0,0,0,0,0,0,0,0],"sum_hessian":[6.85E2,6.03E2,8.2E1,2.98E2,3.05E2,2.14E2,9.1E1,8.2E1,1.32E2],"tree_param":{"num_deleted":"0","num_feature":"30","num_nodes":"9","size_leaf_vector":"1"}},{"base_weights":[-3.5830532E-4,5.9502467E-4,-2.0372648E-2,-3.3851113E-2,3.1409386E-4,-4.4616677E-2,3.386795E-4,-7.735451E-2,-7.830744E-4,-1.4759351E-3,-4.294843E-3],"categories":[],"categories_nodes":[],"categories_segments":[],"categories_sizes":[],"default_left":[0,0,0,0,0,0,0,0,0,0,0],"id":51,"left_children":[1,-1,3,5,-1,7,-1,9,-1,-1,-1],"loss_changes":[2.7688894E-1,0E0,1.4655843E-1,1.2191635E-1,0E0,1.0895854E-1,0E0,1.0601929E-1,0E0,0E0,0E0],"parents":[2147483647,0,0,2,2,3,3,5,5,7,7],"right_children":[2,-1,4,6,-1,8,-1,10,-1,-1,-1],"split_conditions":[5E-1,5.9502467E-4,3.4563598E-1,1E0,3.1409386E-4,-4.1150123E-1,3.386795E-4,-5.863403E-1,-7.830744E-4,-1.4759351E-3,-4.294843E-3],"split_indices":[4,0,3,7,0,1,0,1,0,0,0],"split_type":[0,0,0,0,0,0,0,0,0,0,0],"sum_hessian":[6.84E2,3.38E2,3.46E2,2.43E2,1.03E2,1.98E2,4.5E1,6.9E1,1.29E2,5E1,1.9E1],"tree_param":{"num_deleted":"0","num_feature":"30","num_nodes":"11","size_leaf_vector":"1"}},{"base_weights":[-1.5971157E-3,5.624065E-4,-2.1179372E-2,-2.4792032E-2,2.3309346E-3,-4.1183783E-4,-1.7229993E-3],"categories":[],"categories_nodes":[],"categories_segments":[],"categories_sizes":[],"default_left":[0,0,0,0,0,0,0],"id":52,"left_children":[1,-1,3,5,-1,-1,-1],"loss_changes":[2.7233708E-1,0E0,1.2087457E-1,1.1509888E-1,0E0,0E0,0E0],"parents":[2147483647,0,0,2,2,3,3],"right_children":[2,-1,4,6,-1,-1,-1],"split_conditions":[5E-1,5.624065E-4,1E0,1.5E0,2.3309346E-3,-4.1183783E-4,-1.7229993E-3],"split_indices":[4,0,15,4,0,0,0],"split_type":[0,0,0,0,0,0,0],"sum_hessian":[6.82E2,3.32E2,3.5E2,3.39E2,1.1E1,2.56E2,8.3E1],"tree_param":{"num_deleted":"0","num_feature":"30","num_nodes":"7","size_leaf_vector":"1"}},{"base_weights":[-4.513743E-3,-1.3256078E-2,7.844346E-4,-2.4412237E-2,6.1317027E-4,-3.3092536E-2,5.585464E-3,-8.219053E-4,-1.1284323E-1,5.1925675E-4,-3.2184436E-3,-1.6778155E-3,-8.223811E-3],"categories":[],"categories_nodes":[],"categories_segments":[],"categories_sizes":[],"default_left":[0,0,0,0,0,0,0,0,0,0,0,0,0],"id":53,"left_children":[1,3,-1,5,-1,7,9,-1,11,-1,-1,-1,-1],"loss_changes":[1.799544E-1,1.9931404E-1,0E0,1.06868535E-1,0E0,1.2637872E-1,1.07706755E-1,0E0,1.3833193E-1,0E0,0E0,0E0,0E0],"parents":[2147483647,0,0,1,1,3,3,5,5,6,6,8,8],"right_children":[2,4,-1,6,-1,8,10,-1,12,-1,-1,-1,-1],"split_conditions":[1E0,1E0,7.844346E-4,5.5452126E-1,6.1317027E-4,4.8407888E-1,1E0,-8.219053E-4,1E0,5.1925675E-4,-3.2184436E-3,-1.6778155E-3,-8.223811E-3],"split_indices":[6,7,0,0,0,0,2,0,5,0,0,0,0],"split_type":[0,0,0,0,0,0,0,0,0,0,0,0,0],"sum_hessian":[6.75E2,5.28E2,1.47E2,3.99E2,1.29E2,3.12E2,8.7E1,2.93E2,1.9E1,8E1,7E0,1.5E1,4E0],"tree_param":{"num_deleted":"0","num_feature":"30","num_nodes":"13","size_leaf_vector":"1"}},{"base_weights":[1.9660064E-3,1.9792292E-2,-1.636516E-2,7.922798E-4,-2.5808109E-2,1.4489991E-4,-1.046956E-3,-5.4463074E-3,-1.4018064E-4],"categories":[],"categories_nodes":[],"categories_segments":[],"categories_sizes":[],"default_left":[0,0,0,0,0,0,0,0,0],"id":54,"left_children":[1,3,5,-1,7,-1,-1,-1,-1],"loss_changes":[2.2320293E-1,1.055571E-1,1.3409585E-1,0E0,1.2084445E-1,0E0,0E0,0E0,0E0],"parents":[2147483647,0,0,1,1,2,2,4,4],"right_children":[2,4,6,-1,8,-1,-1,-1,-1],"split_conditions":[1E0,1.5E0,5E-1,7.922798E-4,-8E-1,1.4489991E-4,-1.046956E-3,-5.4463074E-3,-1.4018064E-4],"split_indices":[22,4,4,0,2,0,0,0,0],"split_type":[0,0,0,0,0,0,0,0,0],"sum_hessian":[6.81E2,3.48E2,3.33E2,3.06E2,4.2E1,1.53E2,1.8E2,4E0,3.8E1],"tree_param":{"num_deleted":"0","num_feature":"30","num_nodes":"9","size_leaf_vector":"1"}},{"base_weights":[-5.8122474E-4,5.6423753E-4,-2.0313097E-2,-3.0858323E-2,1.9210143E-2,-4.739469E-2,5.188797E-4,-2.4962313E-3,1.0302948E-3,-1.5282846E-3,2.8831132E-3],"categories":[],"categories_nodes":[],"categories_segments":[],"categories_sizes":[],"default_left":[0,0,0,0,0,0,0,0,0,0,0],"id":55,"left_children":[1,-1,3,5,7,9,-1,-1,-1,-1,-1],"loss_changes":[2.6642877E-1,0E0,1.4629279E-1,2.2359595E-1,1.0735958E-1,1.0358086E-1,0E0,0E0,0E0,0E0,0E0],"parents":[2147483647,0,0,2,2,3,3,4,4,5,5],"right_children":[2,-1,4,6,8,10,-1,-1,-1,-1,-1],"split_conditions":[5E-1,5.6423753E-4,1E0,1E0,-7.1243405E-1,1E0,5.188797E-4,-2.4962313E-3,1.0302948E-3,-1.5282846E-3,2.8831132E-3],"split_indices":[4,0,7,6,3,21,0,0,0,0,0],"split_type":[0,0,0,0,0,0,0,0,0,0,0],"sum_hessian":[6.95E2,3.48E2,3.47E2,2.76E2,7.1E1,2.07E2,6.9E1,8E0,6.3E1,2.03E2,4E0],"tree_param":{"num_deleted":"0","num_feature":"30","num_nodes":"11","size_leaf_vector":"1"}},{"base_weights":[-1.4114748E-3,1.4614493E-2,-1.8327842E-2,-1.9217884E-2,8.6392317E-4,-5.00797E-3,-4.91505E-2,-1.9288991E-4,-3.496961E-3,-1.0018838E-3,3.4522128E-4,-6.344037E-2,6.3361315E-4,-4.8493114E-3,-1.4152996E-3],"categories":[],"categories_nodes":[],"categories_segments":[],"categories_sizes":[],"default_left":[0,0,0,0,0,0,0,0,0,0,0,0,0,0,0],"id":56,"left_children":[1,3,5,7,-1,9,11,-1,-1,-1,-1,13,-1,-1,-1],"loss_changes":[1.8119419E-1,1.6414131E-1,1.2891746E-1,1.0994852E-1,0E0,1.1091754E-1,1.0180363E-1,0E0,0E0,0E0,0E0,1.0547286E-1,0E0,0E0,0E0],"parents":[2147483647,0,0,1,1,2,2,3,3,5,5,6,6,11,11],"right_children":[2,4,6,8,-1,10,12,-1,-1,-1,-1,14,-1,-1,-1],"split_conditions":[1E0,-5.139726E-1,6E-1,1E0,8.6392317E-4,-2.8186893E-1,1E0,-1.9288991E-4,-3.496961E-3,-1.0018838E-3,3.4522128E-4,-7.5508183E-1,6.3361315E-4,-4.8493114E-3,-1.4152996E-3],"split_indices":[22,1,2,12,0,3,7,0,0,0,0,0,0,0,0],"split_type":[0,0,0,0,0,0,0,0,0,0,0,0,0,0,0],"sum_hessian":[6.66E2,3.39E2,3.27E2,9.8E1,2.41E2,2.31E2,9.6E1,8.8E1,1E1,8.7E1,1.44E2,8.1E1,1.5E1,1E1,7.1E1],"tree_param":{"num_deleted":"0","num_feature":"30","num_nodes":"15","size_leaf_vector":"1"}},{"base_weights":[-1.0073932E-3,4.634343E-4,-5.2249955E-4],"categories":[],"categories_nodes":[],"categories_segments":[],"categories_sizes":[],"default_left":[0,0,0],"id":57,"left_children":[1,-1,-1],"loss_changes":[1.8272837E-1,0E0,0E0],"parents":[2147483647,0,0],"right_children":[2,-1,-1],"split_conditions":[5E-1,4.634343E-4,-5.2249955E-4],"split_indices":[4,0,0],"split_type":[0,0,0],"sum_hessian":[6.75E2,3.34E2,3.41E2],"tree_param":{"num_deleted":"0","num_feature":"30","num_nodes":"3","size_leaf_vector":"1"}},{"base_weights":[-1.5830881E-3,4.0702545E-4,-5.220787E-4],"categories":[],"categories_nodes":[],"categories_segments":[],"categories_sizes":[],"default_left":[0,0,0],"id":58,"left_children":[1,-1,-1],"loss_changes":[1.602453E-1,0E0,0E0],"parents":[2147483647,0,0],"right_children":[2,-1,-1],"split_conditions":[1E0,4.0702545E-4,-5.220787E-4],"split_indices":[22,0,0],"split_type":[0,0,0],"sum_hessian":[6.66E2,3.37E2,3.29E2],"tree_param":{"num_deleted":"0","num_feature":"30","num_nodes":"3","size_leaf_vector":"1"}},{"base_weights":[-1.4782695E-3,1.2789881E-3,-8.46164E-3,1.7429469E-4,-7.12308E-4],"categories":[],"categories_nodes":[],"categories_segments":[],"categories_sizes":[],"default_left":[0,0,0,0,0],"id":59,"left_children":[1,-1,3,-1,-1],"loss_changes":[2.0946828E-1,0E0,1.3239275E-1,0E0,0E0],"parents":[2147483647,0,0,2,2],"right_children":[2,-1,4,-1,-1],"split_conditions":[-5E-1,1.2789881E-3,1E0,1.7429469E-4,-7.12308E-4],"split_indices":[4,0,22,0,0],"split_type":[0,0,0,0,0],"sum_hessian":[6.9E2,9.2E1,5.98E2,3.06E2,2.92E2],"tree_param":{"num_deleted":"0","num_feature":"30","num_nodes":"5","size_leaf_vector":"1"}},{"base_weights":[-1.9272607E-3,4.484316E-3,-1.4294112E-3,-3.763094E-3,1.151411E-3,1.0690908E-3,-3.2958607E-4],"categories":[],"categories_nodes":[],"categories_segments":[],"categories_sizes":[],"default_left":[0,0,0,0,0,0,0],"id":60,"left_children":[1,3,-1,5,-1,-1,-1],"loss_changes":[2.082991E-1,1.7364293E-1,0E0,1.3646667E-1,0E0,0E0,0E0],"parents":[2147483647,0,0,1,1,3,3],"right_children":[2,4,-1,6,-1,-1,-1],"split_conditions":[1.5E0,1E0,-1.4294112E-3,-5E-1,1.151411E-3,1.0690908E-3,-3.2958607E-4],"split_indices":[4,6,0,4,0,0,0],"split_type":[0,0,0,0,0,0,0],"sum_hessian":[6.95E2,6.08E2,8.7E1,4.87E2,1.21E2,7.3E1,4.14E2],"tree_param":{"num_deleted":"0","num_feature":"30","num_nodes":"7","size_leaf_vector":"1"}},{"base_weights":[-0E0,1.4726407E-2,-4.516069E-4,6.6135445E-4,-2.8275635E-2,-0E0,-3.8923086E-3],"categories":[],"categories_nodes":[],"categories_segments":[],"categories_sizes":[],"default_left":[0,0,0,0,0,0,0],"id":61,"left_children":[1,3,-1,-1,5,-1,-1],"loss_changes":[1.5337965E-1,1.1062771E-1,0E0,0E0,1.5400836E-1,0E0,0E0],"parents":[2147483647,0,0,1,1,4,4],"right_children":[2,4,-1,-1,6,-1,-1],"split_conditions":[1E0,1E0,-4.516069E-4,6.6135445E-4,1E0,-0E0,-3.8923086E-3],"split_indices":[22,13,0,0,8,0,0],"split_type":[0,0,0,0,0,0,0],"sum_hessian":[6.91E2,3.52E2,3.39E2,3.03E2,4.9E1,3.8E1,1.1E1],"tree_param":{"num_deleted":"0","num_feature":"30","num_nodes":"7","size_leaf_vector":"1"}},{"base_weights":[-2.6269138E-3,-1.1548571E-2,9.142729E-4,-2.1550937E-2,5.1168015E-4,-2.9927894E-2,5.317257E-4,-8.572791E-3,-1.5180216E-3,-1.8888668E-3,3.7572265E-4],"categories":[],"categories_nodes":[],"categories_segments":[],"categories_sizes":[],"default_left":[0,0,0,0,0,0,0,0,0,0,0],"id":62,"left_children":[1,3,-1,5,-1,7,-1,9,-1,-1,-1],"loss_changes":[2.0102783E-1,1.5613592E-1,0E0,1.3489754E-1,0E0,1.424205E-1,0E0,1.9878298E-1,0E0,0E0,0E0],"parents":[2147483647,0,0,1,1,3,3,5,5,7,7],"right_children":[2,4,-1,6,-1,8,-1,10,-1,-1,-1],"split_conditions":[1E0,1E0,9.142729E-4,6.912919E-1,5.1168015E-4,1E0,5.317257E-4,-2E-1,-1.5180216E-3,-1.8888668E-3,3.7572265E-4],"split_indices":[6,7,0,3,0,22,0,2,0,0,0],"split_type":[0,0,0,0,0,0,0,0,0,0,0],"sum_hessian":[6.86E2,5.43E2,1.43E2,4.05E2,1.38E2,3.36E2,6.9E1,1.68E2,1.68E2,4.8E1,1.2E2],"tree_param":{"num_deleted":"0","num_feature":"30","num_nodes":"11","size_leaf_vector":"1"}},{"base_weights":[-3.6126148E-4,4.6492068E-4,-1.6048297E-2,-5.8350974E-4,2.4876895E-3],"categories":[],"categories_nodes":[],"categories_segments":[],"categories_sizes":[],"default_left":[0,0,0,0,0],"id":63,"left_children":[1,-1,3,-1,-1],"loss_changes":[1.6797799E-1,0E0,1.0977998E-1,0E0,0E0],"parents":[2147483647,0,0,2,2],"right_children":[2,-1,4,-1,-1],"split_conditions":[5E-1,4.6492068E-4,1E0,-5.8350974E-4,2.4876895E-3],"split_indices":[4,0,15,0,0],"split_type":[0,0,0,0,0],"sum_hessian":[6.74E2,3.32E2,3.42E2,3.32E2,1E1],"tree_param":{"num_deleted":"0","num_feature":"30","num_nodes":"5","size_leaf_vector":"1"}},{"base_weights":[-1.8038822E-3,4.6198433E-3,-1.5286054E-3,-9.981872E-5,1.0121017E-3],"categories":[],"categories_nodes":[],"categories_segments":[],"categories_sizes":[],"default_left":[0,0,0,0,0],"id":64,"left_children":[1,3,-1,-1,-1],"loss_changes":[2.1960105E-1,1.4205018E-1,0E0,0E0,0E0],"parents":[2147483647,0,0,1,1],"right_children":[2,4,-1,-1,-1],"split_conditions":[1.5E0,1E0,-1.5286054E-3,-9.981872E-5,1.0121017E-3],"split_indices":[4,6,0,0,0],"split_type":[0,0,0,0,0],"sum_hessian":[6.8E2,6E2,8E1,4.69E2,1.31E2],"tree_param":{"num_deleted":"0","num_feature":"30","num_nodes":"5","size_leaf_vector":"1"}},{"base_weights":[1.9567725E-3,2.5098724E-4,-1.2655256E-3],"categories":[],"categories_nodes":[],"categories_segments":[],"categories_sizes":[],"default_left":[0,0,0],"id":65,"left_children":[1,-1,-1],"loss_changes":[1.873414E-1,0E0,0E0],"parents":[2147483647,0,0],"right_children":[2,-1,-1],"split_conditions":[1.5E0,2.5098724E-4,-1.2655256E-3],"split_indices":[4,0,0],"split_type":[0,0,0],"sum_hessian":[6.73E2,5.9E2,8.3E1],"tree_param":{"num_deleted":"0","num_feature":"30","num_nodes":"3","size_leaf_vector":"1"}},{"base_weights":[2.0762165E-3,5.054857E-4,-3.8921207E-4],"categories":[],"categories_nodes":[],"categories_segments":[],"categories_sizes":[],"default_left":[0,0,0],"id":66,"left_children":[1,-1,-1],"loss_changes":[1.5290928E-1,0E0,0E0],"parents":[2147483647,0,0],"right_children":[2,-1,-1],"split_conditions":[5E-1,5.054857E-4,-3.8921207E-4],"split_indices":[4,0,0],"split_type":[0,0,0],"sum_hessian":[6.85E2,3.49E2,3.36E2],"tree_param":{"num_deleted":"0","num_feature":"30","num_nodes":"3","size_leaf_vector":"1"}},{"base_weights":[1.260309E-3,7.5874254E-3,-1.206677E-3,3.211555E-4,-1.777435E-3],"categories":[],"categories_nodes":[],"categories_segments":[],"categories_sizes":[],"default_left":[0,0,0,0,0],"id":67,"left_children":[1,3,-1,-1,-1],"loss_changes":[1.7838502E-1,1.2100951E-1,0E0,0E0,0E0],"parents":[2147483647,0,0,1,1],"right_children":[2,4,-1,-1,-1],"split_conditions":[1.5E0,8.666971E-1,-1.206677E-3,3.211555E-4,-1.777435E-3],"split_indices":[4,1,0,0,0],"split_type":[0,0,0,0,0],"sum_hessian":[6.91E2,6.02E2,8.9E1,5.77E2,2.5E1],"tree_param":{"num_deleted":"0","num_feature":"30","num_nodes":"5","size_leaf_vector":"1"}},{"base_weights":[1.228122E-3,7.900711E-3,-4.6566293E-2,6.818561E-4,-1.936421E-4,-2.0963135E-3,1.2180078E-4],"categories":[],"categories_nodes":[],"categories_segments":[],"categories_sizes":[],"default_left":[0,0,0,0,0,0,0],"id":68,"left_children":[1,3,5,-1,-1,-1,-1],"loss_changes":[2.1046712E-1,1.276075E-1,1.0172492E-1,0E0,0E0,0E0,0E0],"parents":[2147483647,0,0,1,1,2,2],"right_children":[2,4,6,-1,-1,-1,-1],"split_conditions":[1.5E0,1E0,3.4115222E-1,6.818561E-4,-1.936421E-4,-2.0963135E-3,1.2180078E-4],"split_indices":[4,22,1,0,0,0,0],"split_type":[0,0,0,0,0,0,0],"sum_hessian":[6.71E2,5.91E2,8E1,2.94E2,2.97E2,5.6E1,2.4E1],"tree_param":{"num_deleted":"0","num_feature":"30","num_nodes":"7","size_leaf_vector":"1"}},{"base_weights":[-2.0512404E-4,4.831232E-4,-1.6810348E-2,-7.3118834E-4,1.1406315E-3],"categories":[],"categories_nodes":[],"categories_segments":[],"categories_sizes":[],"default_left":[0,0,0,0,0],"id":69,"left_children":[1,-1,3,-1,-1],"loss_changes":[1.8287303E-1,0E0,1.390489E-1,0E0,0E0],"parents":[2147483647,0,0,2,2],"right_children":[2,-1,4,-1,-1],"split_conditions":[5E-1,4.831232E-4,6.9310915E-1,-7.3118834E-4,1.1406315E-3],"split_indices":[4,0,0,0,0],"split_type":[0,0,0,0,0],"sum_hessian":[6.74E2,3.37E2,3.37E2,2.98E2,3.9E1],"tree_param":{"num_deleted":"0","num_feature":"30","num_nodes":"5","size_leaf_vector":"1"}},{"base_weights":[1.8716074E-3,-6.7376294E-3,1.056414E-3,-6.9357245E-4,-1.5291063E-3,1.0667928E-3,-2.0207063E-4],"categories":[],"categories_nodes":[],"categories_segments":[],"categories_sizes":[],"default_left":[0,0,0,0,0,0,0],"id":70,"left_children":[1,3,-1,5,-1,-1,-1],"loss_changes":[1.9744317E-1,1.3824613E-1,0E0,1.0117507E-1,0E0,0E0,0E0],"parents":[2147483647,0,0,1,1,3,3],"right_children":[2,4,-1,6,-1,-1,-1],"split_conditions":[1E0,1.5E0,1.056414E-3,-5E-1,-1.5291063E-3,1.0667928E-3,-2.0207063E-4],"split_indices":[6,4,0,4,0,0,0],"split_type":[0,0,0,0,0,0,0],"sum_hessian":[6.77E2,5.36E2,1.41E2,4.74E2,6.2E1,6.5E1,4.09E2],"tree_param":{"num_deleted":"0","num_feature":"30","num_nodes":"7","size_leaf_vector":"1"}},{"base_weights":[7.878524E-5,4.363527E-4,-4.2534916E-4],"categories":[],"categories_nodes":[],"categories_segments":[],"categories_sizes":[],"default_left":[0,0,0],"id":71,"left_children":[1,-1,-1],"loss_changes":[1.4049117E-1,0E0,0E0],"parents":[2147483647,0,0],"right_children":[2,-1,-1],"split_conditions":[5E-1,4.363527E-4,-4.2534916E-4],"split_indices":[4,0,0],"split_type":[0,0,0],"sum_hessian":[6.8E2,3.41E2,3.39E2],"tree_param":{"num_deleted":"0","num_feature":"30","num_nodes":"3","size_leaf_vector":"1"}},{"base_weights":[1.3428659E-3,1.24317E-3,-4.2742044E-3,-6.9538476E-3,2.179073E-3,-9.801346E-3,1.8280838E-3,-4.6426494E-4,7.6376053E-4],"categories":[],"categories_nodes":[],"categories_segments":[],"categories_sizes":[],"default_left":[0,0,0,0,0,0,0,0,0],"id":72,"left_children":[1,-1,3,5,-1,7,-1,-1,-1],"loss_changes":[1.545917E-1,0E0,1.14350796E-1,1.0489229E-1,0E0,1.0853735E-1,0E0,0E0,0E0],"parents":[2147483647,0,0,2,2,3,3,5,5],"right_children":[2,-1,4,6,-1,8,-1,-1,-1],"split_conditions":[-5E-1,1.24317E-3,1E0,1E0,2.179073E-3,6.8417E-1,1.8280838E-3,-4.6426494E-4,7.6376053E-4],"split_indices":[4,0,15,17,0,0,0,0,0],"split_type":[0,0,0,0,0,0,0,0,0],"sum_hessian":[6.69E2,8.4E1,5.85E2,5.67E2,1.8E1,5.46E2,2.1E1,4.73E2,7.3E1],"tree_param":{"num_deleted":"0","num_feature":"30","num_nodes":"9","size_leaf_vector":"1"}},{"base_weights":[-5.059115E-3,2.8459882E-4,-1.4192476E-3,6.5787025E-3,-3.6054444E-2,-2.1555196E-2,6.411598E-4,-2.947031E-3,-4.437482E-4,-2.9921266E-5,-1.593658E-3],"categories":[],"categories_nodes":[],"categories_segments":[],"categories_sizes":[],"default_left":[0,0,0,0,0,0,0,0,0,0,0],"id":73,"left_children":[1,3,-1,5,7,9,-1,-1,-1,-1,-1],"loss_changes":[1.5631185E-1,1.3314608E-1,0E0,2.1226232E-1,1.0101225E-1,1.07153244E-1,0E0,0E0,0E0,0E0,0E0],"parents":[2147483647,0,0,1,1,3,3,4,4,5,5],"right_children":[2,4,-1,6,8,10,-1,-1,-1,-1,-1],"split_conditions":[1.5E0,6.7703146E-1,-1.4192476E-3,-3.9339727E-1,7.30888E-1,-6.193095E-1,6.411598E-4,-2.947031E-3,-4.437482E-4,-2.9921266E-5,-1.593658E-3],"split_indices":[4,1,0,1,1,1,0,0,0,0,0],"split_type":[0,0,0,0,0,0,0,0,0,0,0],"sum_hessian":[6.71E2,5.94E2,7.7E1,5.09E2,8.5E1,1.73E2,3.36E2,2E1,6.5E1,1.07E2,6.6E1],"tree_param":{"num_deleted":"0","num_feature":"30","num_nodes":"11","size_leaf_vector":"1"}},{"base_weights":[-1.705763E-3,3.527991E-4,-4.603671E-4],"categories":[],"categories_nodes":[],"categories_segments":[],"categories_sizes":[],"default_left":[0,0,0],"id":74,"left_children":[1,-1,-1],"loss_changes":[1.2378321E-1,0E0,0E0],"parents":[2147483647,0,0],"right_children":[2,-1,-1],"split_conditions":[5E-1,3.527991E-4,-4.603671E-4],"split_indices":[4,0,0],"split_type":[0,0,0],"sum_hessian":[6.71E2,3.34E2,3.37E2],"tree_param":{"num_deleted":"0","num_feature":"30","num_nodes":"3","size_leaf_vector":"1"}},{"base_weights":[4.6352184E-4,-6.335426E-3,8.6616864E-4,-1.8382821E-2,7.997174E-4,5.611727E-5,-3.9082453E-2,-3.649588E-3,-8.456343E-4],"categories":[],"categories_nodes":[],"categories_segments":[],"categories_sizes":[],"default_left":[0,0,0,0,0,0,0,0,0],"id":75,"left_children":[1,3,-1,5,-1,-1,7,-1,-1],"loss_changes":[1.3494244E-1,2.1862547E-1,0E0,1.7417791E-1,0E0,0E0,1.6636506E-1,0E0,0E0],"parents":[2147483647,0,0,1,1,3,3,6,6],"right_children":[2,4,-1,6,-1,-1,8,-1,-1],"split_conditions":[1E0,1E0,8.6616864E-4,5E-1,7.997174E-4,5.611727E-5,-7.5323E-1,-3.649588E-3,-8.456343E-4],"split_indices":[7,6,0,4,0,0,1,0,0],"split_type":[0,0,0,0,0,0,0,0,0],"sum_hessian":[6.86E2,5.51E2,1.35E2,4.06E2,1.45E2,2.03E2,2.03E2,2.2E1,1.81E2],"tree_param":{"num_deleted":"0","num_feature":"30","num_nodes":"9","size_leaf_vector":"1"}},{"base_weights":[-0E0,4.5501842E-4,-1.5722502E-2,-7.5909555E-2,-2.088072E-4,-2.7144732E-2,-4.9507925E-3,-2.048036E-3,2.867442E-3],"categories":[],"categories_nodes":[],"categories_segments":[],"categories_sizes":[],"default_left":[0,0,0,0,0,0,0,0,0],"id":76,"left_children":[1,-1,3,5,-1,7,-1,-1,-1],"loss_changes":[1.5956934E-1,0E0,1.6574617E-1,1.545467E-1,0E0,1.3932054E-1,0E0,0E0,0E0],"parents":[2147483647,0,0,2,2,3,3,5,5],"right_children":[2,-1,4,6,-1,8,-1,-1,-1],"split_conditions":[5E-1,4.5501842E-4,-7.5185025E-1,-8.03407E-1,-2.088072E-4,1E0,-4.9507925E-3,-2.048036E-3,2.867442E-3],"split_indices":[4,0,0,0,0,27,0,0,0],"split_type":[0,0,0,0,0,0,0,0,0],"sum_hessian":[6.68E2,3.38E2,3.3E2,4E1,2.9E2,2.7E1,1.3E1,2.1E1,6E0],"tree_param":{"num_deleted":"0","num_feature":"30","num_nodes":"9","size_leaf_vector":"1"}},{"base_weights":[-3.1137157E-3,1.0242105E-3,-9.026049E-3,-1.1772361E-2,2.3079142E-3,-1.9680042E-2,5.1557383E-4,-1.2834561E-2,-1.8708549E-3,-6.532028E-5,-1.3710177E-3],"categories":[],"categories_nodes":[],"categories_segments":[],"categories_sizes":[],"default_left":[0,0,0,0,0,0,0,0,0,0,0],"id":77,"left_children":[1,-1,3,5,-1,7,-1,9,-1,-1,-1],"loss_changes":[1.4995137E-1,0E0,1.3545701E-1,1.3380629E-1,0E0,1.2662786E-1,0E0,1.3509151E-1,0E0,0E0,0E0],"parents":[2147483647,0,0,2,2,3,3,5,5,7,7],"right_children":[2,-1,4,6,-1,8,-1,10,-1,-1,-1],"split_conditions":[-5E-1,1.0242105E-3,1E0,1E0,2.3079142E-3,1.5E0,5.1557383E-4,5.264449E-1,-1.8708549E-3,-6.532028E-5,-1.3710177E-3],"split_indices":[4,0,17,6,0,4,0,1,0,0,0],"split_type":[0,0,0,0,0,0,0,0,0,0,0],"sum_hessian":[6.91E2,9.2E1,5.99E2,5.82E2,1.7E1,4.6E2,1.22E2,3.99E2,6.1E1,3.04E2,9.5E1],"tree_param":{"num_deleted":"0","num_feature":"30","num_nodes":"11","size_leaf_vector":"1"}},{"base_weights":[-1.2093257E-3,9.7501033E-4,-6.307013E-3,-1.9046415E-3,-2.583427E-3,-5.570199E-3,2.0206764E-3,4.5212517E-5,-1.0129908E-3],"categories":[],"categories_nodes":[],"categories_segments":[],"categories_sizes":[],"default_left":[0,0,0,0,0,0,0,0,0],"id":78,"left_children":[1,-1,3,-1,5,7,-1,-1,-1],"loss_changes":[1.1390567E-1,0E0,1.1925213E-1,0E0,1.10466756E-1,1.1031114E-1,0E0,0E0,0E0],"parents":[2147483647,0,0,2,2,4,4,5,5],"right_children":[2,-1,4,-1,6,8,-1,-1,-1],"split_conditions":[-5E-1,9.7501033E-4,-8.6740416E-1,-1.9046415E-3,1E0,5.7705396E-1,2.0206764E-3,4.5212517E-5,-1.0129908E-3],"split_indices":[4,0,1,0,11,1,0,0,0],"split_type":[0,0,0,0,0,0,0,0,0],"sum_hessian":[6.77E2,8.6E1,5.91E2,3.4E1,5.57E2,5.36E2,2.1E1,4.26E2,1.1E2],"tree_param":{"num_deleted":"0","num_feature":"30","num_nodes":"9","size_leaf_vector":"1"}},{"base_weights":[2.5854184E-4],"categories":[],"categories_nodes":[],"categories_segments":[],"categories_sizes":[],"default_left":[0],"id":79,"left_children":[-1],"loss_changes":[0E0],"parents":[2147483647],"right_children":[-1],"split_conditions":[7.756255E-6],"split_indices":[0],"split_type":[0],"sum_hessian":[6.92E2],"tree_param":{"num_deleted":"0","num_feature":"30","num_nodes":"1","size_leaf_vector":"1"}},{"base_weights":[2.9296766E-3,-4.0516863E-3,8.650575E-4,-1.4570912E-2,7.7554025E-4,-2.091017E-2,1.1588372E-3,-9.723321E-7,-1.1881511E-3],"categories":[],"categories_nodes":[],"categories_segments":[],"categories_sizes":[],"default_left":[0,0,0,0,0,0,0,0,0],"id":80,"left_children":[1,3,-1,5,-1,7,-1,-1,-1],"loss_changes":[1.2470515E-1,1.6561809E-1,0E0,1.3167368E-1,0E0,1.3439941E-1,0E0,0E0,0E0],"parents":[2147483647,0,0,1,1,3,3,5,5],"right_children":[2,4,-1,6,-1,8,-1,-1,-1],"split_conditions":[1E0,1E0,8.650575E-4,8.374969E-1,7.7554025E-4,5E-1,1.1588372E-3,-9.723321E-7,-1.1881511E-3],"split_indices":[6,7,0,3,0,4,0,0,0],"split_type":[0,0,0,0,0,0,0,0,0],"sum_hessian":[6.75E2,5.29E2,1.46E2,3.94E2,1.35E2,3.54E2,4E1,1.7E2,1.84E2],"tree_param":{"num_deleted":"0","num_feature":"30","num_nodes":"9","size_leaf_vector":"1"}},{"base_weights":[2.1893453E-4,1.6414774E-4,-3.680636E-2,-1.5056382E-3,1.7018127E-3],"categories":[],"categories_nodes":[],"categories_segments":[],"categories_sizes":[],"default_left":[0,0,0,0,0],"id":81,"left_children":[1,-1,3,-1,-1],"loss_changes":[1.2814477E-1,0E0,1.0277704E-1,0E0,0E0],"parents":[2147483647,0,0,2,2],"right_children":[2,-1,4,-1,-1],"split_conditions":[1.5E0,1.6414774E-4,7.3226213E-1,-1.5056382E-3,1.7018127E-3],"split_indices":[4,0,0,0,0],"split_type":[0,0,0,0,0],"sum_hessian":[6.74E2,5.93E2,8.1E1,7.2E1,9E0],"tree_param":{"num_deleted":"0","num_feature":"30","num_nodes":"5","size_leaf_vector":"1"}},{"base_weights":[5.331189E-4,-5.468345E-4,2.7231232E-4],"categories":[],"categories_nodes":[],"categories_segments":[],"categories_sizes":[],"default_left":[0,0,0],"id":82,"left_children":[1,-1,-1],"loss_changes":[1.0776593E-1,0E0,0E0],"parents":[2147483647,0,0],"right_children":[2,-1,-1],"split_conditions":[-4.1150123E-1,-5.468345E-4,2.7231232E-4],"split_indices":[1,0,0],"split_type":[0,0,0],"sum_hessian":[6.77E2,2.08E2,4.69E2],"tree_param":{"num_deleted":"0","num_feature":"30","num_nodes":"3","size_leaf_vector":"1"}},{"base_weights":[-4.0680406E-4,4.4008526E-3,-1.1060316E-3,4.2784348E-5,2.0678379E-3],"categories":[],"categories_nodes":[],"categories_segments":[],"categories_sizes":[],"default_left":[0,0,0,0,0],"id":83,"left_children":[1,3,-1,-1,-1],"loss_changes":[1.252431E-1,1.1048432E-1,0E0,0E0,0E0],"parents":[2147483647,0,0,1,1],"right_children":[2,4,-1,-1,-1],"split_conditions":[1.5E0,1E0,-1.1060316E-3,4.2784348E-5,2.0678379E-3],"split_indices":[4,11,0,0,0],"split_type":[0,0,0,0,0],"sum_hessian":[6.95E2,6.12E2,8.3E1,5.87E2,2.5E1],"tree_param":{"num_deleted":"0","num_feature":"30","num_nodes":"5","size_leaf_vector":"1"}},{"base_weights":[7.8660826E-4,5.925388E-3,-1.0775194E-3,6.1554706E-4,-2.3481413E-4],"categories":[],"categories_nodes":[],"categories_segments":[],"categories_sizes":[],"default_left":[0,0,0,0,0],"id":84,"left_children":[1,3,-1,-1,-1],"loss_changes":[1.2583584E-1,1.2206355E-1,0E0,0E0,0E0],"parents":[2147483647,0,0,1,1],"right_children":[2,4,-1,-1,-1],"split_conditions":[1.5E0,1E0,-1.0775194E-3,6.1554706E-4,-2.3481413E-4],"split_indices":[4,22,0,0,0],"split_type":[0,0,0,0,0],"sum_hessian":[6.82E2,6.01E2,8.1E1,2.95E2,3.06E2],"tree_param":{"num_deleted":"0","num_feature":"30","num_nodes":"5","size_leaf_vector":"1"}},{"base_weights":[-1.13455324E-4,-7.6764474E-5,2.0323738E-3],"categories":[],"categories_nodes":[],"categories_segments":[],"categories_sizes":[],"default_left":[0,0,0],"id":85,"left_children":[1,-1,-1],"loss_changes":[1.02839686E-1,0E0,0E0],"parents":[2147483647,0,0],"right_children":[2,-1,-1],"split_conditions":[1E0,-7.6764474E-5,2.0323738E-3],"split_indices":[18,0,0],"split_type":[0,0,0],"sum_hessian":[6.58E2,6.37E2,2.1E1],"tree_param":{"num_deleted":"0","num_feature":"30","num_nodes":"3","size_leaf_vector":"1"}},{"base_weights":[-1.0047228E-6],"categories":[],"categories_nodes":[],"categories_segments":[],"categories_sizes":[],"default_left":[0],"id":86,"left_children":[-1],"loss_changes":[0E0],"parents":[2147483647],"right_children":[-1],"split_conditions":[-3.014168E-8],"split_indices":[0],"split_type":[0],"sum_hessian":[6.97E2],"tree_param":{"num_deleted":"0","num_feature":"30","num_nodes":"1","size_leaf_vector":"1"}},{"base_weights":[1.3229484E-3,-1.5852238E-4,7.6824037E-4],"categories":[],"categories_nodes":[],"categories_segments":[],"categories_sizes":[],"default_left":[0,0,0],"id":87,"left_children":[1,-1,-1],"loss_changes":[1.1401538E-1,0E0,0E0],"parents":[2147483647,0,0],"right_children":[2,-1,-1],"split_conditions":[1E0,-1.5852238E-4,7.6824037E-4],"split_indices":[6,0,0],"split_type":[0,0,0],"sum_hessian":[6.97E2,5.45E2,1.52E2],"tree_param":{"num_deleted":"0","num_feature":"30","num_nodes":"3","size_leaf_vector":"1"}},{"base_weights":[2.2017527E-3,1.0383133E-3,-2.5118983E-3,-9.907373E-3,7.4354495E-4,-6.5110927E-4,6.199531E-4],"categories":[],"categories_nodes":[],"categories_segments":[],"categories_sizes":[],"default_left":[0,0,0,0,0,0,0],"id":88,"left_children":[1,-1,3,5,-1,-1,-1],"loss_changes":[1.064449E-1,0E0,1.17235E-1,1.6820657E-1,0E0,0E0,0E0],"parents":[2147483647,0,0,2,2,3,3],"right_children":[2,-1,4,6,-1,-1,-1],"split_conditions":[-5E-1,1.0383133E-3,1E0,1E0,7.4354495E-4,-6.5110927E-4,6.199531E-4],"split_indices":[4,0,7,6,0,0,0],"split_type":[0,0,0,0,0,0,0],"sum_hessian":[6.75E2,8.8E1,5.87E2,4.65E2,1.22E2,3.38E2,1.27E2],"tree_param":{"num_deleted":"0","num_feature":"30","num_nodes":"7","size_leaf_vector":"1"}},{"base_weights":[-2.5620773E-3,-5.114531E-3,2.1983495E-3,-1.0451284E-2,8.6664327E-4,1.3771719E-4,-7.4449246E-4],"categories":[],"categories_nodes":[],"categories_segments":[],"categories_sizes":[],"default_left":[0,0,0,0,0,0,0],"id":89,"left_children":[1,3,-1,5,-1,-1,-1],"loss_changes":[1.2858601E-1,1.2124893E-1,0E0,1.2924159E-1,0E0,0E0,0E0],"parents":[2147483647,0,0,1,1,3,3],"right_children":[2,4,-1,6,-1,-1,-1],"split_conditions":[1E0,6.8417E-1,2.1983495E-3,5E-1,8.6664327E-4,1.3771719E-4,-7.4449246E-4],"split_indices":[18,0,0,4,0,0,0],"split_type":[0,0,0,0,0,0,0],"sum_hessian":[6.98E2,6.77E2,2.1E1,5.88E2,8.9E1,2.84E2,3.04E2],"tree_param":{"num_deleted":"0","num_feature":"30","num_nodes":"7","size_leaf_vector":"1"}},{"base_weights":[1.6551083E-3,-3.7060443E-3,1.0509489E-3,2.99803E-4,-5.614068E-4],"categories":[],"categories_nodes":[],"categories_segments":[],"categories_sizes":[],"default_left":[0,0,0,0,0],"id":90,"left_children":[1,3,-1,-1,-1],"loss_changes":[1.2585853E-1,1.2195824E-1,0E0,0E0,0E0],"parents":[2147483647,0,0,1,1],"right_children":[2,4,-1,-1,-1],"split_conditions":[6.8417E-1,1E0,1.0509489E-3,2.99803E-4,-5.614068E-4],"split_indices":[0,22,0,0,0],"split_type":[0,0,0,0,0],"sum_hessian":[6.85E2,5.88E2,9.7E1,3.04E2,2.84E2],"tree_param":{"num_deleted":"0","num_feature":"30","num_nodes":"5","size_leaf_vector":"1"}},{"base_weights":[-7.372084E-4],"categories":[],"categories_nodes":[],"categories_segments":[],"categories_sizes":[],"default_left":[0],"id":91,"left_children":[-1],"loss_changes":[0E0],"parents":[2147483647],"right_children":[-1],"split_conditions":[-2.2116252E-5],"split_indices":[0],"split_type":[0],"sum_hessian":[6.89E2],"tree_param":{"num_deleted":"0","num_feature":"30","num_nodes":"1","size_leaf_vector":"1"}},{"base_weights":[-6.05847E-4,3.702866E-4,-4.568657E-4],"categories":[],"categories_nodes":[],"categories_segments":[],"categories_sizes":[],"default_left":[0,0,0],"id":92,"left_children":[1,-1,-1],"loss_changes":[1.2885618E-1,0E0,0E0],"parents":[2147483647,0,0],"right_children":[2,-1,-1],"split_conditions":[1E0,3.702866E-4,-4.568657E-4],"split_indices":[22,0,0],"split_type":[0,0,0],"sum_hessian":[6.78E2,3.56E2,3.22E2],"tree_param":{"num_deleted":"0","num_feature":"30","num_nodes":"3","size_leaf_vector":"1"}},{"base_weights":[-1.1740192E-4,1.3037384E-2,-4.441735E-4,-1.33805135E-2,2.4522902E-2,-1.96377E-5,-2.9705137E-3,1.1284277E-3,-3.46925E-4],"categories":[],"categories_nodes":[],"categories_segments":[],"categories_sizes":[],"default_left":[0,0,0,0,0,0,0,0,0],"id":93,"left_children":[1,3,-1,5,7,-1,-1,-1,-1],"loss_changes":[1.3060193E-1,1.08234994E-1,0E0,1.0388504E-1,1.2022096E-1,0E0,0E0,0E0,0E0],"parents":[2147483647,0,0,1,1,3,3,4,4],"right_children":[2,4,-1,6,8,-1,-1,-1,-1],"split_conditions":[1E0,-5.139726E-1,-4.441735E-4,1E0,1E0,-1.96377E-5,-2.9705137E-3,1.1284277E-3,-3.46925E-4],"split_indices":[22,1,0,12,23,0,0,0,0],"split_type":[0,0,0,0,0,0,0,0,0],"sum_hessian":[6.74E2,3.52E2,3.22E2,1.04E2,2.48E2,9.2E1,1.2E1,1.84E2,6.4E1],"tree_param":{"num_deleted":"0","num_feature":"30","num_nodes":"9","size_leaf_vector":"1"}},{"base_weights":[-4.1576498E-4,-8.678212E-5,1.9020106E-3],"categories":[],"categories_nodes":[],"categories_segments":[],"categories_sizes":[],"default_left":[0,0,0],"id":94,"left_children":[1,-1,-1],"loss_changes":[1.0397916E-1,0E0,0E0],"parents":[2147483647,0,0],"right_children":[2,-1,-1],"split_conditions":[1E0,-8.678212E-5,1.9020106E-3],"split_indices":[17,0,0],"split_type":[0,0,0],"sum_hessian":[6.95E2,6.71E2,2.4E1],"tree_param":{"num_deleted":"0","num_feature":"30","num_nodes":"3","size_leaf_vector":"1"}},{"base_weights":[-0E0,2.1527876E-4,-2.581775E-2,-2.876813E-3,-1.1001786E-2,-2.8300721E-5,-3.2904272E-3],"categories":[],"categories_nodes":[],"categories_segments":[],"categories_sizes":[],"default_left":[0,0,0,0,0,0,0],"id":95,"left_children":[1,-1,3,-1,5,-1,-1],"loss_changes":[1.256863E-1,0E0,1.419239E-1,0E0,1.1146662E-1,0E0,0E0],"parents":[2147483647,0,0,2,2,4,4],"right_children":[2,-1,4,-1,6,-1,-1],"split_conditions":[1E0,2.1527876E-4,-7.0117986E-1,-2.876813E-3,1E0,-2.8300721E-5,-3.2904272E-3],"split_indices":[8,0,1,0,13,0,0],"split_type":[0,0,0,0,0,0,0],"sum_hessian":[6.78E2,5.31E2,1.47E2,2.4E1,1.23E2,1.13E2,1E1],"tree_param":{"num_deleted":"0","num_feature":"30","num_nodes":"7","size_leaf_vector":"1"}},{"base_weights":[2.1387564E-3],"categories":[],"categories_nodes":[],"categories_segments":[],"categories_sizes":[],"default_left":[0],"id":96,"left_children":[-1],"loss_changes":[0E0],"parents":[2147483647],"right_children":[-1],"split_conditions":[6.416269E-5],"split_indices":[0],"split_type":[0],"sum_hessian":[6.95E2],"tree_param":{"num_deleted":"0","num_feature":"30","num_nodes":"1","size_leaf_vector":"1"}},{"base_weights":[-0E0],"categories":[],"categories_nodes":[],"categories_segments":[],"categories_sizes":[],"default_left":[0],"id":97,"left_children":[-1],"loss_changes":[0E0],"parents":[2147483647],"right_children":[-1],"split_conditions":[-0E0],"split_indices":[0],"split_type":[0],"sum_hessian":[6.88E2],"tree_param":{"num_deleted":"0","num_feature":"30","num_nodes":"1","size_leaf_vector":"1"}},{"base_weights":[2.1901759E-4],"categories":[],"categories_nodes":[],"categories_segments":[],"categories_sizes":[],"default_left":[0],"id":98,"left_children":[-1],"loss_changes":[0E0],"parents":[2147483647],"right_children":[-1],"split_conditions":[6.5705276E-6],"split_indices":[0],"split_type":[0],"sum_hessian":[6.74E2],"tree_param":{"num_deleted":"0","num_feature":"30","num_nodes":"1","size_leaf_vector":"1"}},{"base_weights":[-2.1620023E-3,-2.9596765E-4,7.143061E-4],"categories":[],"categories_nodes":[],"categories_segments":[],"categories_sizes":[],"default_left":[0,0,0],"id":99,"left_children":[1,-1,-1],"loss_changes":[1.3107532E-1,0E0,0E0],"parents":[2147483647,0,0],"right_children":[2,-1,-1],"split_conditions":[1E0,-2.9596765E-4,7.143061E-4],"split_indices":[6,0,0],"split_type":[0,0,0],"sum_hessian":[6.61E2,5.13E2,1.48E2],"tree_param":{"num_deleted":"0","num_feature":"30","num_nodes":"3","size_leaf_vector":"1"}},{"base_weights":[1.5947223E-3],"categories":[],"categories_nodes":[],"categories_segments":[],"categories_sizes":[],"default_left":[0],"id":100,"left_children":[-1],"loss_changes":[0E0],"parents":[2147483647],"right_children":[-1],"split_conditions":[4.7841666E-5],"split_indices":[0],"split_type":[0],"sum_hessian":[6.76E2],"tree_param":{"num_deleted":"0","num_feature":"30","num_nodes":"1","size_leaf_vector":"1"}},{"base_weights":[1.5264856E-4,-5.741581E-3,7.6755346E-4,-4.2572015E-4,4.9784005E-4],"categories":[],"categories_nodes":[],"categories_segments":[],"categories_sizes":[],"default_left":[0,0,0,0,0],"id":101,"left_children":[1,3,-1,-1,-1],"loss_changes":[1.0181944E-1,1.0131489E-1,0E0,0E0,0E0],"parents":[2147483647,0,0,1,1],"right_children":[2,4,-1,-1,-1],"split_conditions":[1E0,1E0,7.6755346E-4,-4.2572015E-4,4.9784005E-4],"split_indices":[7,6,0,0,0],"split_type":[0,0,0,0,0],"sum_hessian":[6.65E2,5.37E2,1.28E2,3.93E2,1.44E2],"tree_param":{"num_deleted":"0","num_feature":"30","num_nodes":"5","size_leaf_vector":"1"}},{"base_weights":[-2.6319094E-3,-2.3097765E-2,1.6195509E-4,-2.4746128E-4,-2.0627612E-3],"categories":[],"categories_nodes":[],"categories_segments":[],"categories_sizes":[],"default_left":[0,0,0,0,0],"id":102,"left_children":[1,3,-1,-1,-1],"loss_changes":[1.1432934E-1,1.2524697E-1,0E0,0E0,0E0],"parents":[2147483647,0,0,1,1],"right_children":[2,4,-1,-1,-1],"split_conditions":[-4.1150123E-1,1E0,1.6195509E-4,-2.4746128E-4,-2.0627612E-3],"split_indices":[1,8,0,0,0],"split_type":[0,0,0,0,0],"sum_hessian":[6.84E2,1.96E2,4.88E2,1.5E2,4.6E1],"tree_param":{"num_deleted":"0","num_feature":"30","num_nodes":"5","size_leaf_vector":"1"}},{"base_weights":[-0E0,-2.3267415E-4,8.371406E-4],"categories":[],"categories_nodes":[],"categories_segments":[],"categories_sizes":[],"default_left":[0,0,0],"id":103,"left_children":[1,-1,-1],"loss_changes":[1.4772409E-1,0E0,0E0],"parents":[2147483647,0,0],"right_children":[2,-1,-1],"split_conditions":[1E0,-2.3267415E-4,8.371406E-4],"split_indices":[6,0,0],"split_type":[0,0,0],"sum_hessian":[6.81E2,5.33E2,1.48E2],"tree_param":{"num_deleted":"0","num_feature":"30","num_nodes":"3","size_leaf_vector":"1"}},{"base_weights":[1.2005284E-4],"categories":[],"categories_nodes":[],"categories_segments":[],"categories_sizes":[],"default_left":[0],"id":104,"left_children":[-1],"loss_changes":[0E0],"parents":[2147483647],"right_children":[-1],"split_conditions":[3.6015851E-6],"split_indices":[0],"split_type":[0],"sum_hessian":[6.71E2],"tree_param":{"num_deleted":"0","num_feature":"30","num_nodes":"1","size_leaf_vector":"1"}},{"base_weights":[-1.1653549E-3,-1.9966977E-2,2.0643606E-4,-3.267477E-2,5.591598E-4,-9.267059E-5,-1.891497E-3],"categories":[],"categories_nodes":[],"categories_segments":[],"categories_sizes":[],"default_left":[0,0,0,0,0,0,0],"id":105,"left_children":[1,3,-1,5,-1,-1,-1],"loss_changes":[1.05690576E-1,1.0497785E-1,0E0,1.3752548E-1,0E0,0E0,0E0],"parents":[2147483647,0,0,1,1,3,3],"right_children":[2,4,-1,6,-1,-1,-1],"split_conditions":[-4.1150123E-1,5.6257844E-1,2.0643606E-4,5E-1,5.591598E-4,-9.267059E-5,-1.891497E-3],"split_indices":[1,0,0,4,0,0,0],"split_type":[0,0,0,0,0,0,0],"sum_hessian":[6.89E2,2.1E2,4.79E2,1.6E2,5E1,8.3E1,7.7E1],"tree_param":{"num_deleted":"0","num_feature":"30","num_nodes":"7","size_leaf_vector":"1"}},{"base_weights":[2.1591985E-3],"categories":[],"categories_nodes":[],"categories_segments":[],"categories_sizes":[],"default_left":[0],"id":106,"left_children":[-1],"loss_changes":[0E0],"parents":[2147483647],"right_children":[-1],"split_conditions":[6.477595E-5],"split_indices":[0],"split_type":[0],"sum_hessian":[6.64E2],"tree_param":{"num_deleted":"0","num_feature":"30","num_nodes":"1","size_leaf_vector":"1"}},{"base_weights":[-0E0],"categories":[],"categories_nodes":[],"categories_segments":[],"categories_sizes":[],"default_left":[0],"id":107,"left_children":[-1],"loss_changes":[0E0],"parents":[2147483647],"right_children":[-1],"split_conditions":[-0E0],"split_indices":[0],"split_type":[0],"sum_hessian":[6.9E2],"tree_param":{"num_deleted":"0","num_feature":"30","num_nodes":"1","size_leaf_vector":"1"}},{"base_weights":[-1.5887471E-3],"categories":[],"categories_nodes":[],"categories_segments":[],"categories_sizes":[],"default_left":[0],"id":108,"left_children":[-1],"loss_changes":[0E0],"parents":[2147483647],"right_children":[-1],"split_conditions":[-4.766241E-5],